{"hidden_layer": [{"weights": [-0.05926996277956711, 0.03373290154434948, 0.03216289448277449, -0.043255044704163054, 0.03719931119183878, 0.02697435545593928, 0.03183592835624788, 0.11809318171300807, 0.08912861384670456, -0.06994398058869307, 0.01702056616026626, -0.02539468317558305, -0.03685080348205058, 0.01429487599109813, 0.10304700897049483, -0.03584032217915532, 0.03490551666339126, 0.03387521241484219, 0.0019662863680585973, -0.018557969615909515, -0.008356528451580612, -0.10101402172346108, 0.07737041550995202, -0.052375979681170845, -0.05944275862634604, -0.004197047273049215, 0.06099012919211519, 0.027670221675359305, -0.04066812724557794, -0.008575081475842197, -0.03488819503175114, 0.039051416553343266, -0.040772154575977645, 0.1026989135454032, -0.004670208155791548, -0.0529673670762744, -0.008415480492556462, 0.029245840882035492, -0.016711083964990676, -0.0058429953516135, -0.05439874868757053, 0.00418063940700966, -0.030772045649160334, -0.022294045246539246, 0.015479042525564505, -0.0671044004884632, -0.009986946847235858, 0.054831043278192826, 0.018724191662507994, 0.1214001234201887, -0.011835940731707906, 0.017371287048665234, -0.02934611076370549, 0.059357167344527846, 0.09073454663134331, 0.034711367055522524, -0.027171099186742178, -0.0024276897708545436, -0.030833598963873155, 0.015248493532583441, -0.04779404777252447, 0.13415976443504668, -0.013657675295403378, -0.07230917353335578, 0.0410351133761432, -0.0747612924799096, -0.003509040666001798, 0.13253018547475676, 0.05913378182244865, -0.028934671835167826, -0.02418184530339109, -0.044026798269684045, 0.05653018539872989, 0.041844187485924486, -0.09171764149460318, -0.01786268451168128, 0.031573300107531274, -0.07241521327150327, 0.028711025762085035, -9.486840436464243e-06, 0.053712412209327376, -0.06658196990124175, 0.021251261583012344, 0.0108987834314051, -0.0043285999643730136, 0.05566427287700352, -0.11522664965145192, -0.0002076800775012283, 0.024950029633852948, 0.011533022212776812, -0.05165213569210739, -0.05095004759075256, 0.024058174432907555, -0.05615447270719579, 0.02758977866429415, -0.03774384757864636, -0.07787208037360492, 0.016204797033248744, 0.07209282764089091, -0.09141204463841844, -0.04397859174099505, -0.07119411512468948, 0.0062505431759304585, -0.006361860304339521, -0.059345470080445974, 0.07765578739431844, -0.01112355665071089, 0.05792181974094134, -0.043246167026055146, -0.014130983398277173, 0.0027319003041911334, 0.12364841589758796, -0.026378505977559835, 0.08282124170613764, -0.03565061552946389, 0.10452677613597733, 0.028037171825051974, -0.12698211986985425, -0.03682941836383644, 0.000549215969146946, 0.005594911839600742, -0.004305901688295388, -0.09294424585782132, 0.05439692087441849, 0.005194259308424871, -0.060087680958325146, -0.04583048478764252, 0.022777965575804658, -0.08282039038636353, -0.017856163902927106, 0.0135718145846957, 0.06221169905844543, 0.10228388875240506, 0.07113995963321289, -0.08973896961042806, 0.00630850493023059, -0.11024211332796412, 0.0038143326712414783, 0.03950708882453998, -0.019873767417676352, -0.021656920892266052, -0.06023492022894845, 0.04990555753935448, -0.06742245892743373, -0.009438260469474283, 0.02779208268965379, 0.0074343172001053535, 0.03250556396006893, -0.033134374808455574, 0.007799845650427506, 0.01490714226788834, 0.046463921884141265, -0.007581525463977393, 0.015647207804621362, 0.09966039201874939, -0.029045754600531788, 0.024187141681624395, -0.06106515900037247, -0.0007781027427684806, 0.008749526347273722, -0.009402150618494054, -0.06726994320813207, -0.02645266113140129, 0.024269779012458276, 0.01823109113135325, -0.036087197682124164, 0.0032330576453985273, -0.0006613111878587965, -0.05305177477989298, -0.0035018379035500536, 0.026828815142239535, 0.010337963599113095, -0.006038844894044654, 0.006361022044863448, -0.0005396454426799675, 0.10315363523341534, 0.01747344915918064, 0.029895090669828032, 0.06270678842290203, 0.08415198979167608, 0.025815209353284643, 0.026744740034126798, -0.0003337525983766203, 0.0995998021470724, -0.012164893419568014, 0.09366600690474612, 0.02092113180518579, -0.00809554590289529, -0.06242768781120561, 0.05812637997679018, 0.045299889774461755, 0.041859706112836445, -0.049441700412116686, -0.021785506362032067, -0.07898521033950219, 0.007628608432631829, -0.03151915814080141, -0.06440200736065807, -0.017862417837520544, 0.09667037661965039, -0.04451911399458104, -0.0501639677134709, -0.021676234533865225, 0.007456610337970521, 0.06444199282559526, -0.062270820902088624, 0.0772392008527646, -0.07095267661616234, -0.004257019707138118, 0.008213283117684553, 0.052101367244338066, -0.05288704519577765, 0.06913768018280338, 0.08586161076777503, 0.10096874543443853, -0.001877301886684006, 0.07341796385858154, 0.12387047888286587, 0.06997050922662267, 0.018962587817055603, 0.02135765837468693, 0.04772504596312008, -0.07424080288693868, -0.061975242328084205, -0.02791328244381879, 0.02396373134064616, -0.05108447655303519, 0.0402230666699752, 0.026001621318911296, -0.02602529314575778, -0.017052569735985623, -0.0006907538399488147, 0.10103681294132404, 0.08125731652160659, -0.009415918424702357, 0.03332094079144505, 0.008359947985498488, 0.012253108157785918, -0.057401610452326605, 0.07201756679801108, -0.007354332652588276, -0.04440574313823452, 0.03696220462364563, 0.02802305065222416, 0.022321179442904317, -0.021110636527954724, -0.04603291793954193, 0.04526202686709888, 0.031024515138399524, 0.05518448752564425, -0.03791006000539022, -0.002087813856202186, -0.03636262601396364, 0.012793745401446144, -0.032163067018668445, 0.08054714287796058, 0.013685614142609088, 0.05577219851140662, -0.09408909019623538, -0.013460182364748422, -0.027721480726279522, 0.06345293721331409, 0.09312473040163984, 0.02896527730999867, 0.061835149729672884, 0.0020899100101267015, 0.036595371888216516, -0.0001669185309921267, -0.032802425911144, -0.056506246854311215, -0.003002261001888972, -0.10472776398450534, -0.024559434593618184, -0.008122641979886994, 0.015012668403321706, 0.043364178900987406, 0.014884570170872085, 0.09648713168460166, 0.024249324137523745, 0.0340034689351734, -0.031583203838023904, 0.02972677848369091, -0.058756314833333226, -0.04531607861851577, 0.06120672401900014, -0.03683253944009626, -0.08153061318882276, 0.041699617910530826, 0.017329337818068315, 0.15057804557867543, -0.0018182978981671693, 0.08546106935629376, 0.0425865086738764, 0.015659865944476253, -0.0248606979873168, -0.12037784174276274, -0.08026067555492804, 0.048137168906412155, -0.06740021637723202, -0.01695353009477415, -0.04595737550997926, -0.009149524444343035, 0.00387806341668267, -0.04692575533534247, 0.02534483817350971, 0.03179034565430316, -0.10079635391250871, -0.018878424998403465, 0.06307451243718608, -0.017441587799770796, -0.03833956563215049, -0.034377098960033964, 0.04638988904599429, 0.059187719641709144, -0.04381708756755076, 0.10470812800869508, -0.04747124609030336, 0.014232791928721403, 0.07736577526338155, 0.09958360726525871, -0.0053412375244363906, 0.006038394032473908, -0.05362253069712551, -0.0198701461520852, 0.03923681987629131, -0.0007929479681646753, -0.044797130026736666, -0.020346460211389285, -0.0007601839328044063, -0.017960675162375327, -0.03778534184360174, -0.015158877962512042, -0.06160072733403546, -0.09638805954898308, 0.050249069396826364, -0.015545079544741986, -0.019319941136228137, 0.04358648129333204, -0.004747267049178523, 0.10261337194469307, -0.068681946159508, -0.051878609918207884, 0.06288252247521474, 0.06054793367390269, -0.00851333838708135, 0.02139122975284789, -0.034131267247310935, 0.07680915111212025, 0.07434281859869728, 0.05346525028067402, -0.04081040019203099, 0.03288838700568505, -0.036456097370065034, -0.05237865256439795, 0.04693853965496136, -0.010701615764918524, -0.02984890792510606, -0.032851740013779974, -0.0018337934321320684, -0.10552350539262552, -0.07259147592478651, -0.06672671112654995, 0.020795419973830838, 0.037255016428418386, -0.023124177330758326, 0.00592667668024147, 0.08346094340626056, -0.054380397941215367, 0.0303162051358586, 0.0734478440748953, -0.0031566971331971226, -0.09680775603629498, -0.05403432324795185, 0.08247801297639372, -0.028021609101376008, 0.03837519504843583, 0.003049899294932418, 0.024732824358698263, -0.026080975792147645, 0.004276361167079863, 0.020096686494348415, 0.08884670988246132, 0.07877551804986281, -0.023578383714337126, 0.046089534937394226, -0.07301560457202137, 0.024034594960753487, 0.021339476848246216, 0.002486199868194631, -0.0010425063338388458, -0.0009963945150813444, -0.03502372531838116, 0.04535090973643583, 0.028429515664871206, -0.01598919987270569, 0.036717846124871265, 0.039518158738062234, 0.08299894589759263, 0.002956092846859851, -0.004391340389134181, -0.10287568756251554, -0.004847540163951303, -0.09274330003846806, 0.00011303961705379761, 0.08191590584150045, -0.09315424109396536, -0.08137569543410159, 0.0458707691414161, 0.029788664132087254, 0.02885845063970291, 0.06826096965219398, -0.0169694266509431, 0.024407093353985027, 0.06994860494852755, -0.01449479797675588, -0.034490891406963216, -0.023668709407737486, 0.0212909496014834, 0.03488947744280784, -0.014284074085561574, -0.016216668664247934, 0.04951217418726894, -0.019535490914749976, -0.006195138565870426, 0.04738023122724263, -0.02975971482062913, -0.024503908155609804, 0.057750823134072884, 0.0696746021801834, -0.009631715088139346, -0.029404036562757623, 0.0944969103236109, 0.02519418192569042, -0.0016323724126363762, -0.025702357502478825, 0.05124464971145569, 0.04152702165532507, -0.11519455498102944, -0.036090631482656045, 0.03556961159035865, 0.06844862062795566, 0.028888259638556412, 0.0010008020688990055, 0.012571189054513356, -0.0818421155550377, -0.05208706678771169, -0.012626376139230802, 0.03647283919102416, -0.022496251735167113, -0.0945744129965439, -0.0695365285325837, 0.012711341814161682, 0.014420453751372762, 0.015049112736116739, 0.019576880589072563, 0.013745053854058106, 0.01751526359649553, 0.02382306077256206, 0.09983288816807405, 0.06503542389908162, 0.03245026455477702, -0.048053890305636685, -0.05426300663875459, 0.01597647894079408, -0.018289390703557774, 0.027461148758587444, 0.004904827565981862, 0.03209572190747305, 0.002021273357404782, 0.08246051294213244, 0.017018136871988096, 0.018574054516805463, -0.09120069333406887, 0.020464488015468105, -0.0017270992857594174, -0.05559086222443609, -0.015839401085169912, 0.042394199049855766, 0.0256438235502553, 0.05525380067525799, -0.049294873541269706, 0.002686456071131131, -0.07584240023916335, -0.04848160251579061, -0.00042235094343123975, 0.05767569600571887, -0.01854669091008666, -0.04769543489498717, -0.024243190650139468, -0.044255184137770576, -0.041779863347932024, 0.1339207973186853, -0.059489528603589054, -0.02924528498130006, -0.04779927368890666, -0.07759818995410613, 0.042546363754976876, 0.017290028472034886, 0.02772097292571639, 0.00943090832306557, 0.0018626356149831298, -0.020620803051299496, 0.01284060118776109, 0.0434599358349543, -0.05651791993027676, -0.014554089499278246, -0.05080818756898613, -0.0006895308295676513, -0.10489447552663118, -0.010762691934031503, -0.08024944111792306, -0.027347088635396453, -0.08231076592374785, -0.0005366960514882151, -0.10665775939974007, 0.022079793581728353, -0.029893780688679806, 0.04967815839611197, -0.015526458108009292, -0.005555140337625835, -0.06826688227542617, 0.0215703351969779, 0.016181518135578405, -0.004703599187599348, 0.03427947313040502, 0.04271956464393775, 0.05921206576705035, -0.054954924978780136, 0.011405706814139452, 0.04631470124523699, -0.07107768129785165, -0.06583702661466632, 0.025763383675938986, 0.03247795653552912, 0.03381682713760165, -0.026565852038924892, -0.03854753645243196, 0.044982728412933486, -0.06656929717431513, 0.04508879538354756, 0.06702719125417121, -0.028375230578669346, -0.002742460494807571, -0.053661906734318005, -0.022693657150003353, -0.10387220214236761, -0.03925092621494854, -0.0658088029974665, -0.05747682010365552, 0.0806586011751864, -0.02632806327811191, 0.0013328470169381942, 0.0034948661392238084, 0.015108522703799669, 0.10102969535393394, -0.01055613440633498, -0.044224927660529934, -0.03955110168266133, -0.026696658610725617, 0.05044446482393911, -0.00601793466163105, -0.0484522675708628, -0.025648414765498898, 0.05500982584225333, 0.021840223896966462, -0.0035212471607168803, -0.07823569878400786, -0.031218736832799292, 0.01891639530130665, -0.05620892195281823, 0.01811574363151361, -0.03136503230511969, -0.05751770341105435, -0.1748775189626948, 0.013996125202287187, -0.07622189916254266, -0.06258576205605512, 0.058507210663919756, 0.0986127058879075, 0.022601690786023945, -0.030780498697227477, -0.1477809019042978, 0.057221907604576454, 0.01636705710145699, -0.0122511211775856, 0.03827614204442394, 0.039722114337454234, 0.1011113537807071, -0.020144652190181446, -0.029222135490456685, 0.13025088960077383, -0.006182885759536956, -0.0624231897862625, -0.029902321191304572, 0.03553258787759054, -0.0416379358185951, -0.025014056344067392, 0.007333713678565434, 0.023170376766813938, -0.017879309301488417, -0.06297125624352261, -0.10380732571160203, -0.00019826121379744126, 0.001534608614889838, -0.04188451973328427, -0.05096526091262708, 0.007664406515110018, 0.11287079898591594, 0.06712742040994701, -0.043990802674585015, 0.0393997724024654, -0.0230401408299403, 0.05095880992381906, -0.022864411140669904, 0.014162830585704875, -0.013539938551506816, 0.05920685740806405, -0.0933065748118772, 0.00856589755901712, -0.08798715954899729, -0.09629737813947395, -0.00935168126578912, 0.07106142744403181, 0.002370407354301176, 0.016346052918237056, -0.008741305400310402, -0.046525793546467506, -0.053231692512451564, -0.0005291777272710666, -0.07505329160950285, -0.046837672375386975, -0.036782816024751995, -0.02984799626394989, 0.0019152443432552259, 0.05163182857458982, -0.048980132319859954, 0.07555807105537597, 0.048334748832998126, -0.0639086915812978, -0.01964260907042737, -0.0021987157498549194, 0.04931181287256832, 0.04230254834458394, 0.004833169998903251, 0.017058939579768076, -0.047504875419399496, -0.013725889831382752, -0.046127116750289944, -0.02364101845701359, 0.017520844045910755, 0.049985242785331105, -0.04068142029533408, 0.019272994673651695, -0.041818325328602086, -0.01771246687059831, -0.014919680065683638, 0.08921805276453436, 0.1130683583063343, -0.039177018770431456, -0.050235892999737325, 0.031639665814344846, 0.07346789596695479, 0.057143941110722477, -0.06254357618187173, 0.016845073530063946, 0.05737475347689376, -0.03596360239615539, 0.0052376659908714126, 0.08274284861895392, -0.05423489897295953, 0.017871527209338666, 0.028049796869120337, -0.08383361346858627, -0.07339047126993543, 0.049981893220133654, -0.01385622868551771, -0.0692174091475236, 0.05093218102275605, -0.02933608009735414, -0.06868216130238652, -0.01584190691111085, -0.04112370630655336, -0.017495539141640495, 0.04488077905734615, 0.004159170967644805, 0.03250184615875593, 0.00491246593938964, 0.015071065676393984, -0.055005749905223854, 0.03358797165283887, 0.062471208530829735, 0.03742900240027099, 0.012553605795710208, -0.011178453841135343, -0.05290170122038967, -0.02641308532980443, -0.005913143868422938, 0.055267872906418956, 0.00697427905338122, -0.01549491106461488, 0.05546530227481408, 0.07420213980586834, 0.010701427333467536, 0.04308944889803025, -0.052855688828617575, 0.03573789503667895, -0.008707442411558897, 0.07742716121593052, 0.048947910023944975, 0.03981995825276873, -0.0981570911494427, -0.017096182418649297, -0.014505005873265179, -0.01873943254643502, -0.07477458857641228, 0.024059933584454945, -0.019104887862338226, 0.003645730292900543, 0.006942666237354473, 0.03599038083451934, -0.029966521333145785, 0.002776008222636028, -0.04095127312984276, 0.03163965183748853, 0.02702506807222958, -0.023103157053001554, -0.06072408964675406, -0.053584759892089565, 0.00987701994037362, 0.07623016189703369, 0.00034540149780520413, -0.0011648382044931445, -0.027677841938039995, -0.006984355016762393, 0.026805682510102142, 0.08419649036078433, 0.07885086981681991, 0.03792817242053108, 0.03142536104510829, 0.09193945599549107, 0.024188194180075093, 0.008999953326796355, 0.01196786635709997, 0.08799503519553438, -0.09405417743037198, -0.11268617272014533, 0.03762498331022734, -0.14347475216401123, -0.12292848737564517, -0.009214227350019184, 0.03855149733785267, 0.08602237885165212, 0.0891400552816826, -0.08338749618448316, -0.06855902234607178, 0.07722224339675764, 0.08821892364329609, 0.036260199038068146, 0.016655344799393047, -0.06009992415841623, -0.04517510205481652, 0.1592343318000326, 0.02654186886483829, 0.017426083479692562, -0.021863018389701568, -0.0956159359499893, -0.013399790171427938, -0.015113592858916705, 0.06795934491908921, -0.010672674752871614, -0.09510480219128953, -0.004025763293364574, 0.0023058406317027946, 0.03770135952741467, 0.005628769592623766, 0.06949045798958378, -0.012066430480319244, 0.003525339160139063, -0.02876207216657711, 0.10941940131672134, 0.06695724537462261, 0.031067129421415422, -0.08591276926940418, 0.001458371861107962], "bias": 0.006685223922099526}, {"weights": [-0.014745678710914884, 0.10659389073134912, -0.04024846622091264, 0.04347377521745599, 0.03404165618924871, 0.01338163738749121, -0.018410086417488557, 0.01644017801252013, -0.05994471027935732, -0.024864365073038075, 0.045111313179244744, -0.022931037612550286, 0.10996564461242428, 0.0569098760710248, -0.010058500812794044, -0.03692942432635091, 0.09482850941871955, 0.08782121821108402, 0.0012042428023395283, -0.017588289727032958, 0.11886444456778433, -0.05830447538055558, 0.06744626130367455, 0.015191232714230214, -0.012491658436564579, -0.07599966835644657, 0.04296116847002856, -0.08441294584874792, -0.008015580317815898, 0.008290966917740426, -0.05489125125869994, 0.034890925400246416, -0.006508872477409247, 0.028132778912118593, 0.09231116563100603, 0.05245024148779012, 0.0746176532801753, 0.07798548926395087, 0.07005711874277602, 0.003758957617537045, 0.04698463532652497, -0.10420632394707299, -0.055357263286194995, 0.13059206232265044, 0.022356840259936547, -0.02354507732514892, -0.03648516171581573, 0.008469638445078136, 0.05121027599239116, -0.020120664942856355, -0.0657659335378236, 0.027337541255948426, -0.020059594283051905, 0.057030125005198905, 0.03477941736649429, 0.09569915064232626, 0.004143520072693448, -0.021021000788665863, -0.06176046547541184, -0.0320438208523193, -0.02999416966622467, -0.024924121211133694, 0.10436108451382164, -0.0457720428700595, -0.04167604684273717, 0.09412298517778613, -0.05095746052942556, 0.019789805893156133, 0.031138362431563007, -0.10527232944476231, 0.05908825966829188, -0.006914337498295027, -0.006931085861952716, 0.11991956220161361, -0.021745996128393123, 0.061523041296574106, -0.010487010156034577, 0.04420284485945029, -0.003178638162229778, -0.03086844745549123, -0.11457831318645124, -0.06557128701265857, 0.017325204923957265, -0.010772851323214039, -0.006281169351462775, -0.008126338121062296, -0.035393102068187764, -0.11483010439445179, 0.09018683754988727, -0.08315138221152261, -0.03249389244172315, -0.01184402259051323, -0.011849356319609563, 0.028403728593443013, 0.01624224218347277, -0.03994571504470591, -0.07550655184268061, -0.07655807833852367, 0.04969470350283131, -0.07567700211373682, -0.0022375330672017844, 0.022247319640347693, 0.004266769273428649, 0.05419624721662117, -0.051701542665003014, 0.023997763452389857, 0.08302127606367715, 0.008468452823276693, 0.02702640886070156, 0.053353560720154215, -0.0686595500785323, -0.14092140203176173, 0.026724944863956226, 0.0014926051544379467, -0.01893556751419339, 0.0300532011861821, 0.03235302576111706, -0.05259992184396141, -0.012924403574415422, 0.12793613441707222, 0.06916733326338993, 0.02021687825339486, -0.038263582451157865, -0.0011738787946069965, -0.00024013606538808316, 0.06427361961925587, 0.02516563165581852, -0.06883561020450941, 0.039986589980744024, -0.03235005785989485, 0.0541421919250464, 0.036717000894516925, 0.040402799002464275, 0.06975412396137205, -0.05245700385488848, -0.01884005137717109, 0.03420793341932365, -0.0012303754258596242, -0.06345882021787792, 0.03796040531084233, -0.0934756076205737, 0.021613301885354284, -0.0400216125805302, -0.0011278591702532073, 0.012107644619717991, 0.014519352671934556, 0.04316514941340516, 0.005039189379912841, -0.030258162178376083, 0.08905098558857882, -0.016636707124234408, 0.0014381800813765254, -0.03559479885322078, 0.04564481349543311, 0.0703907011336291, -0.015606105001868951, -0.020195483236619908, 0.02048110539335349, 0.008901658840437874, 0.1341902010096861, -0.014455342143465022, 0.03631757222209809, -0.03172923682334851, 0.012170385683288, 0.0439797630058055, 0.01721187129351501, 0.01962631936195455, 0.055440421832351615, -0.023883403125220835, 0.030398638612941432, -0.057840964775853626, 0.06273547036323367, -0.037898368023792005, -0.06262566256301799, 0.01466309986748809, -0.06131914700384143, -0.018643966501015487, -0.0966773724560543, 0.027045897388644036, -0.061238241763191655, 0.02020880093064457, -0.07234769969571209, -0.10631289763602736, -0.0587589974708183, 0.016463871857424237, -0.08599668910892583, 0.026287623877099327, -0.050912904539814036, 0.020019980751709597, 0.04843859908986038, 0.07069723650712735, 0.053920669788587415, -0.00782213224638028, 0.019377038816519147, -0.0021108507363625136, 0.06443456753602575, -0.04121736508970648, -0.010039189009171636, 0.019219111120883425, -0.10843694607098002, 0.018141361575254807, -0.05445345791945825, -0.07626101766508188, -0.008549925701510586, -0.009944335027811295, -0.07333411792159651, -0.07403844114615706, -0.01588738433188052, -0.01587734412800949, -0.03800777454381627, -0.015602400258075437, 0.02593590275442084, -0.057711956286899485, 0.019117605156824178, 0.003459778037671114, -0.012793808919234826, 0.009940299727541863, 0.009666070981815992, 0.09283481857078028, -0.03803669104254805, -0.02642015008909375, 0.021823444500645165, 0.06957639468982775, 0.05240382796449677, 0.0402406198743258, -0.1332804210695946, 0.0301452262462608, 0.07013290738998376, 0.018810223868114092, -0.02418745103398951, 0.0436127225896813, -0.048835991607420956, -0.07203300075136174, 0.031164840299910523, -0.05325293183017695, -0.04446107842017462, -0.13159092211678852, -0.039373926648997276, -0.032006648467502945, 0.021342024189259477, -0.005078825494639304, 0.17005919148583512, -0.017273406155162267, -0.06991361487082634, -0.005795226527339801, -0.04072056969274612, -0.03785591786667841, -0.019281509231939394, -0.03230854606135034, -0.012679888262236842, -0.10732758405490926, -0.030413148731667262, -0.06247244460774062, -0.06526294966481086, 0.009545971066749866, -0.062295595074136845, -0.04497636368349003, 0.03184965069336984, 0.04773482943950223, -0.07631955056726324, 0.006817230337148146, 0.07521159909616419, -0.08612445314348623, 0.004950536832352206, -0.12377346727570045, -0.09185916086155269, -0.028045752814262748, -0.05421222327816946, 0.0022154013730958343, -0.04192756480754608, -0.06530962597075012, -0.01771927120110362, 0.0039015689177796685, -0.07526999113082371, -0.029269964890394587, -0.04691851163828354, 0.022834398499328803, 0.012140162752912303, -0.06770038867838606, 0.01206064749654627, -0.06858649564717213, -0.01599577202878708, -0.015690722917212987, 0.03592354756775639, 0.07836417420462391, 0.004075860552266221, -0.04212740238736765, -0.05270681189448912, -0.001787261708415518, 0.019175497658816158, 0.03051847777881597, -0.03753969972322045, -0.03922905230509603, 0.015407397929091371, 0.029368394622725596, -0.0017106422589856834, -0.02513223660059533, -0.07793861241602534, -0.04879803324374158, -0.05435349287475286, -0.13409496464227133, 0.001105526086434399, -0.09450733477343659, 0.09052230874410282, 0.07316006613994118, 0.03585922668282963, -0.020475392518129267, -0.01549542590301093, 0.05924766401288468, 0.03990545832873264, 0.013784275437828768, -0.008753844225626115, -0.002072985646957081, 0.04535713375113536, -0.04211534926726643, -0.030852291385964785, 0.01769179108143102, -0.11445783832130647, -0.059499958453201524, -0.07323585643651562, -0.10306216798257933, 0.03915585842645725, -0.008289465800490385, 0.06604116616259444, -0.0242050695928977, 0.00455680224311603, -2.482691192305497e-05, 0.044093665187421, -0.07038759624632657, -0.15695975053212277, 0.035624596843602155, 0.029468132012412135, 0.10530076734823512, -0.03065584180227979, 0.08808292601169616, -0.03459662686075247, -0.08634141218039333, -0.013502368282719246, -0.027196678593172968, -0.07892947613032454, -0.010764101270053191, 0.024244127718779866, -0.002823030717010369, 0.07327002606951515, 0.004764777123175774, 0.05961763278715197, 0.057353526863332574, 0.008896624530702772, 0.05356808690409587, 0.01724432932132259, -0.03711159552767071, 0.036698811201430044, -0.004214115905131198, -0.07647469563391669, -0.11573400279548893, -0.004649104054594478, -0.04154557298882889, -0.004413585624610546, 0.010074459522485901, 0.06739593441862389, -0.006301960148228431, 0.05951019808818644, 0.08976058125940603, 0.054947232502627404, -0.01230951002711977, 0.04313557220688337, 0.04104789899076091, 0.03079822611619776, 0.06924026211950392, 0.09291584410685531, -0.01570282581167263, 0.1032881715203197, -0.03832842626851506, 0.05120238524728895, 0.1391437304813722, 0.1443927096432401, 0.08082107754893451, 0.047337015616532974, 0.12608074616292952, 0.0955623000539163, 0.08951734531835397, -0.03810113833850578, -0.01113649306247749, 0.09210039432341062, -0.030343337024309355, 0.06278273632543487, -0.005253300216469045, 0.022463919720006345, 0.09120377564726205, -0.030945261412592833, 0.03867291466137695, 0.010334089632118505, 0.012760483389785731, 0.08204964912625594, -0.007097382520200759, -0.04513112668832016, 0.02402365763738869, 0.015118785477759238, -0.05625969678666137, 0.007610952216686601, 0.13976005276004977, 0.21190150574909192, 0.042396152206448434, 0.007412726941582165, -0.03203309916369129, 0.1339757216122941, 0.09276153139698787, 0.11831770707819811, 0.02103281940201968, 0.09122646156496093, -0.020009510241172725, 0.016336512601559473, -0.05484850053579477, 0.05071629630694652, -0.029555195433064927, -0.009745286938288198, -0.06278734427692775, -0.003975945085414373, 0.01884564013853633, 0.08208446890665014, 0.0076786967793032465, 0.05670969140776721, -0.004876181510942778, 0.07586847967205151, -0.013019458054106151, 0.00501818935241988, -0.04344021089890928, -0.027793676453461768, 0.012147097282221058, 0.03165468882188731, 0.11484664299400807, -0.021514662852117457, 0.07578459096765164, 0.08818009140702837, 0.010815544669909216, -0.01141643560961247, 0.10099115352960572, 0.1751419844987745, -0.006988960391154502, 0.04829178426403558, 0.05426929002555981, 0.08632861030091558, -0.0024970001119751896, 0.04318975640260217, 0.009038295568159603, -0.04970818329573195, 0.02647956020176516, -0.019759416180799058, -0.08695267253296692, -0.08311836774831562, -0.04189913779684955, -0.055807561751144145, 0.12185882192294689, -0.003821179084115278, -0.009990711329265309, 0.03242287873938827, 0.03156802229384881, 0.0040709548400657625, -0.05096407570244029, 0.014128173928958909, 0.05366478306579709, 0.07288645821232288, -0.019006102494027937, 0.06620693301211988, -0.002141431166117132, 0.027591182068201346, 0.04351482760494297, -0.03503585816704486, -0.008534018772619544, 0.05546321599730971, -0.045011082680356425, -0.021614135711207405, 0.015135793619637638, -0.030497263861470413, 0.020788067848890614, -0.0699813600588216, -0.005082248919304778, -0.05598963238860454, -0.0665227945959585, 0.00751596026558487, -0.03589046022610081, 0.03627586858464462, -0.07060080172141986, 0.042238723262669614, -0.011284940296777273, 0.02554541813536294, -0.020770654179849128, -0.06412108677556902, 0.04817466379119724, 0.14033277175212008, 0.10957254321194008, 0.047305490590757185, 0.04249847836869226, 0.03188761925066172, 0.087047026102831, 0.0544029149292776, 0.05238499488835875, -0.05990228766905626, 0.033534304234045034, 0.04683844881411574, 0.003995185892868082, -0.0007156812316773036, -0.02328848129003282, 0.03223867800015508, 0.04927524927387128, -0.019369023930632497, 0.026913162788367025, -0.06192616962551696, -0.0022956822494987965, 0.008198707561592328, -0.10141390897351409, 0.04405340055741003, -0.06208131947018839, 0.011453296753279137, -0.0712477542073101, -0.04902867566504039, 0.08804911646798153, 0.10265544500488004, 0.11703726652363013, 0.04202239853356339, 0.028088199445072168, -0.03559662927040077, 0.001052304962062858, 0.0009289097911627741, 0.07182584293573198, -0.07658924083680828, -0.06454425102623927, 0.021768812756812483, -0.02050026142283565, -0.04671243702481345, -0.04159849130623692, -0.01971391347553525, 0.032179328741283944, 0.05686870083960885, -0.051735422913679954, 0.05874156131931909, 0.013802448937359622, -0.08227189291929407, -0.032373040618502345, -0.05815105335661954, -0.024999439509766994, -0.009378657919490094, -0.02744207099575981, 0.0643101604798019, -0.03140581683896093, 0.0975203890076992, 0.06083494351539935, -0.008389904802013395, 0.057175185913444, 0.08912338000083596, -0.02495533771199308, 0.01527373319750507, -0.011949521575065972, 0.05603141134301061, -0.058395249230364245, -0.01901404913607365, 0.07070237621575597, -0.03460311173728133, -0.02464702511044109, -0.05037678554646361, -0.0700739272153207, -0.024526794780390604, 0.00718082248399587, -0.02412224664248866, 0.02095602832942395, 0.001143397713529805, -0.07881259629062345, 0.0361615167471716, -0.1308216227914288, -0.05654179220857853, -0.0075813737607441315, 0.06689304596300737, -0.04590299953675152, 0.07196768122604531, 0.01839048889064434, 0.049214213044800885, -0.04222552385802065, 0.0055690506670882526, -0.012211283252728546, 0.0647058528791801, 0.043258313119497904, -0.024954754751502568, -0.11693905906732804, 0.053739625714482604, 0.08953946995454909, -0.003730972638727813, -0.010777538110734222, 0.027879591515051743, -0.04172359318509368, -0.04734188216804759, -0.05965199837071674, -0.04490592661823663, 0.08009591958442684, 0.02602820135792231, -0.024076311198969698, 0.005779725078096228, 0.00813825096349498, -0.10129551264164909, -0.009841418903857074, -0.05595403952751959, -0.0010147136724604738, 0.045282360782506546, 0.0720398875096327, 0.041929891744735354, -0.04484901506225373, -0.11528651858902683, 0.04408429800141858, 0.0023445018139532834, -0.06973548877159653, 0.0674839089898723, -0.05718464278927544, -0.004113426650108354, -0.025893827985583713, 0.044027180029099146, 0.012966065532341453, 0.005350576717508262, 0.036602673736576496, -0.014857931718327238, -0.06797039107636271, 0.004827948675469632, 0.04709969765100358, -0.07394372231220916, 0.07069731379713176, -0.04097909481099584, -0.013118847168008482, 0.07085600655055356, -0.05616572156736119, -0.1401620012822899, 0.002603721072081083, -0.07122402778797765, -0.09623175813909053, 0.007844800773687455, 0.017798031278746913, -0.01629273832390716, 0.004573316807166748, -0.062271246089065674, 0.050552979070634115, 0.010613555969161513, 0.02070283620530083, 0.05260266629041616, 0.033579954387157045, 0.02891780835726502, 0.003731427173475001, -0.012487548002811827, 0.00720969786180995, -0.03260702140827002, -0.005571417301455629, -0.07152797514321964, 0.06637250640687808, -0.03176389199789254, 0.0006129559371849029, -0.02796438047666183, -0.01575681275361435, -0.0223523122726064, 0.04022700124304587, -0.1236081936590988, -0.0874778977363188, -0.13868793054011297, -0.09661353684406906, -0.054243038496487594, -0.050929397426139784, 0.05283478538697589, 0.020126761665637094, 0.01324364819691126, -0.02361309212232171, 0.0015925054996881, 0.012892030231810635, -0.002668648167474097, -0.10796493518816241, 0.02299171453130442, 0.050442968356876325, -0.07788581097574605, 0.016132207312703564, 0.06406723974913782, 0.10570689462272403, 0.002770662673796326, -0.04805730085573022, 0.12800678893277898, 0.09735900313933049, -0.04701627092046347, 0.012021211166053862, 0.026957127708290434, -0.06363073311969993, -0.14376033807509364, -0.06828376333663695, 0.01396225295480626, -0.032994208915472965, 0.08517184157998296, -0.04532887198989744, 0.050045363846826264, -0.033272695770838655, -0.03142701472581346, -0.04991022047841709, 0.0209241712944279, -0.04166785721547135, 0.01002277876608511, 0.07426259046014497, -0.011424486612355145, 0.060949952798557784, 0.013910917345147081, -0.033916291252652886, -0.03827380834960826, -0.07652294681239047, 0.030295680228671115, -0.0424554804402102, 0.02192749123997776, 0.0047614380707634504, -0.030072797784974875, -0.05437070474279367, -0.007136453063828529, 0.0410335122335601, -0.0366908407884084, -0.027929565046487456, 0.048249046013162045, -0.10794101119674207, -0.020613214287153674, -0.19970858316959184, -0.04794091940902152, 0.034038710870546274, -0.03423141900236243, -0.04994879858880091, -0.024971211807802506, 0.02288933688884175, -0.03211648024199133, 0.06710726646206748, 0.029265411819761018, 0.05181733955038144, 0.09596838537211225, -0.06832270764666366, -0.11247775712056582, -0.10315516570750806, 0.02476997686420504, 0.025576660955796783, 0.09319776045376836, 0.008925953728120642, -0.03167289010536479, -0.023420485670891406, 0.009033116071831125, 0.1250320706836294, -0.07116530205881577, -0.02699260392229553, -0.0317085882517738, -0.07159163074454, 0.1291322221019374, 0.05268097282057128, 0.00184683317987095, 0.0842979527331894, 0.003910470149806672, 0.01597833347491527, -0.08424216363217964, -0.0636004199518583, -0.08811949117105852, -0.007249258870294805, -0.008354397394403253, -0.054980027058691434, -0.005192317347472624, 0.007407733059792866, 0.06888654730710177, 0.011744578923339409, -0.013197509464335844, -0.012658087418648985, 0.0016284972376226655, 0.0158127398109461, 0.035282474676661645, 0.01342504651634066, 0.05629949408865251, -0.025892243828564882, 0.1269611985119329, -0.010128722666216497, -0.10918341186417314, -0.02551219377447733, 0.033103489791670056, -0.008907492723764718, -0.08079141037051749, -0.02442638565386331, 0.03903054660650146, 0.06291496890201881, -0.007555040076627852, -0.04100211763077683, -0.0775115842676984, -0.010755506953378478, -0.051046290400803884, -0.002196611797160436, -0.013125565732584563], "bias": 0.05382092342282419}, {"weights": [-0.016837280453949575, -0.021308403556903225, -0.004410605736675244, 0.0465845471169171, -0.06706828159905551, -0.00029192078015043344, -0.050002838408534915, -0.08365273935589287, -0.042075648534073085, 0.03539852682843439, 0.0179354362449538, -0.03994590162480627, 0.05909623754208339, 0.03922032507362246, -0.0034981114907709668, -0.004155209768531404, 0.0145269004260718, 0.014907662458929903, -0.15423002835490812, 0.04394452601983621, -0.0052964176997046825, 0.008715736771603503, 0.003039920148731877, 0.00979488374053185, 0.04232304753153866, 0.027201144379074015, 0.1206506114544772, -0.04084627109575539, -0.036016277430418846, -0.016803033717861304, 0.08470428744656394, -0.06772631835604889, 0.015970122431295752, -0.06304936589704514, -0.05303708124353071, -0.023848725484889557, 0.04673936831265649, 0.06326700950125373, 0.032608930865338524, -0.028305417003497816, 0.0094983699759835, 0.08393675937071969, 0.04113355405312115, 0.04675178125798261, 0.011007764049113694, -0.11175564913214629, 0.014049463733249045, -0.003579237541878871, 0.09802501753442928, -0.0011688320518583027, 0.004721909134554953, 0.06952151235223025, 0.018782118894214533, 0.07928128691346079, 0.01717354586984537, -0.05182030478612067, 0.025685052294315974, 0.012181648554066353, -2.5443624796078132e-05, -0.052458265651845935, -0.01505961719063838, -0.02872560733976426, -0.06740856420399494, 0.02573540200429544, 0.03363720404112359, 0.04606564732453987, -0.14102736954599474, 0.029152648412692456, -0.02019771983145665, -0.051360820351707755, 0.031058449162271278, 0.05230542875088866, 0.060585049763169356, -0.05303081355588281, 0.014678692752602612, 0.004319864017109446, -0.013907912312388174, -0.049149979109673794, 0.09176966481610543, -0.005364835118896743, -0.015395829070886815, 0.011806220827866908, -0.05406025018628546, 0.005211995257474533, -0.01483898539403946, -0.04335721716654721, 0.014734128740495307, -0.051373072218926244, -0.05196856891292611, 0.06504749987164901, 0.019512190208596406, 0.003463529546679268, 0.038419222082936993, 0.18165886600460196, 0.044524947642976855, 0.02155403977906398, -0.17144279343440688, 0.029221908358643325, 0.06993808802321251, 0.02240694948173541, -0.0251387774817786, 0.0008277064152509047, 0.07942679530568948, 0.02086666530553747, -0.05571422484455163, 0.052339538607432734, 0.012736571396875942, -0.04593571100469587, 0.07363358140953694, -0.00638860912237707, 0.01691787870519678, 0.04202210004555237, 0.03284287985181959, -0.04910606192803801, 0.05171023077455603, -0.04703665205499128, -0.04874531674831203, -0.02727606953988986, 0.011164337316515461, 0.08658564553966461, -0.025997277578596767, -0.038573933922833384, 0.013160413026497494, 0.016316852889209168, 0.05966131676900347, 0.0941805756881203, 0.03505705771381454, 0.10313901191187634, 0.05498101980379257, 0.028214418995606044, 0.0554939794956842, 0.020379232314663206, 0.09498599860455872, 0.05835221672665441, -0.006217025365956318, 0.014185406954797471, -0.02504060491344158, -0.03686138062225623, 0.12166731238782667, 0.044964642289038646, 0.012686317166556776, 0.04195899379793443, -0.032894768990319796, -0.005398056463662436, 0.01697261729857605, -0.05255392070903899, 0.028994750150595217, -0.05081913512286936, 0.0006060316912370054, 0.05951542717909827, 0.10534543063163462, 0.10331983859105859, -0.03073552864147771, -0.034565627440944706, 0.05987300195063057, 0.01940454182077774, 0.07794720181158614, 0.015303097069147745, 0.021129848369389255, 0.035124252763993155, 0.04049206231582087, 0.05914461924085288, 0.0128764563901091, 0.023164974078149728, -0.02983630817447032, 0.02170032907651386, 0.023497801448389886, -0.02021461276726096, 0.003761309301730739, -0.03563161464284822, 0.04018410744338929, -0.11773398582823334, 0.01602379733548056, -0.05366838808421101, -0.0007221235185004665, 0.06636176264380284, 0.008134209543692044, 0.019462239625799373, 0.010007355071077704, 0.06285564329538747, 0.047609688549765605, 0.005637357431726298, -0.10080872640114384, -0.0018361189205865203, -0.047647002257793794, 0.004584462315661093, -0.07760302243883047, -0.044586275401369946, 0.10211864437468819, -0.026075245882227628, 0.005728851644359178, -0.0461937438351119, 0.08274423850182855, -0.0016047851832658988, 0.049335635149973564, 0.015382765191948068, 0.0372509954512734, 0.005993818534460877, -0.07291530959023064, -0.04578266985045385, -0.004883864829404208, -0.02125202128934963, -0.03966903696134468, 0.052378135026345876, 0.02533785031976336, 0.03930113455768859, -0.0016415723794733666, 0.023462693952257002, 0.012587779958564856, -0.056714548928963014, 0.005749357788545852, -0.057444634378168755, 0.012240645559976272, -0.008564533947944515, -0.05920916012170743, -0.02746194322448701, -0.031993760767334005, -0.0734145366306598, 0.04939560063732267, 0.012544750993313265, 0.08170703005294193, 0.010057533812508377, 0.011959302706586905, 0.0035327991071558364, -0.06103446091412044, -0.009721996441112966, -0.040519265196466744, 0.09072357277697249, 0.032957708599726125, 0.08142234988751754, 0.060960788370710756, -0.044253145820183415, 0.0102636817766348, 0.07290252757430657, -0.014092535264113668, 0.006462141890344457, -0.016560070076871627, 0.033253827300053156, 0.04281249161364398, 0.07903932567776638, 0.029174959061854473, 0.12711204348114835, -0.06801147175399036, -0.14726105378849982, -0.06338003199710064, -0.0017494877882750716, -0.010431502932558932, -0.0014946495240568286, 0.05788748936465699, 0.000474361653255243, 0.08115603107606482, 0.0742708947093152, -0.04222807345690624, -0.003097927164654633, -0.015570253002662094, 0.0070398635508962136, -0.08163257329401677, -0.07324275876190159, -0.1080194961872494, 0.02489185698505716, -0.04428732846672249, 0.12819810484160976, 0.01727718339106919, -0.02538731275665631, 0.00030487084456154516, -0.0041230458083514445, -0.04291278111576271, 0.09014259467147744, -0.0047610306201502604, -0.0035387072569092373, 0.04248681076049437, -0.09153360449124065, -0.05472743437663426, -0.06724977710519225, -0.07964022938932847, -0.05855173078884583, 0.011237850906487934, 0.008578348366824147, 0.041428005265188826, 0.0295049273176713, 0.04507442643722734, -0.06276644789885119, 0.05949896290026709, 0.051114583262745705, 0.09058389580060132, 0.0112410566594295, -0.021721737257481295, 0.00867294235883028, -0.024890003576339925, -0.04744150422541903, 0.041628641566260845, 0.031023290528403816, 0.05873295428732853, -0.058721518186245214, 0.007264454643986681, -0.00500436384208852, -0.03067164870479572, -0.01325410457160059, -0.029105405127010323, 0.04303773965965456, -0.007650234474589086, 0.02210127662511417, 0.04971364046593245, -0.07197012369509129, 0.015022657576179162, -0.012381479098771034, -0.014902394066461065, 0.02790022118273951, -0.092445200213196, -0.017759717908771854, -0.05533799741146127, -0.01374354324519414, -0.05153867036978086, 0.07446820546613411, -0.02529559712577894, -0.06273488724889859, -0.059397029988859415, -0.037333128204728144, -0.10057450514249111, -0.042120884344359524, -0.08124951299608603, 0.004028483919402906, 0.005334656267109173, -0.012857044236831424, -0.02363754753560551, -0.07917728181422946, -0.11227933429916566, -0.017976911420384184, 0.06690580067957652, -0.00687273167300439, -0.06966646066106236, 0.058506960265410114, 0.08506633712248975, -0.00756596713387218, -0.050888912457423205, 0.16083436022480144, 0.009183595224943403, -0.015568469944236246, -0.02868576847507528, -0.15466472139031032, 0.0876291984767758, -0.024602047917092425, 0.0228965891079558, 0.017430031035033964, -0.06937991274393068, -0.008867660338919751, 0.011251795843132918, -0.05194029699106899, -0.025948575889108257, 0.012582727960651966, 0.07804478501765695, 0.0352091773102565, -0.08097947658461585, 0.000562247022548568, 0.07294774415537503, -0.06184284459670421, 0.03856369725476977, 0.02410734685796064, -0.04858877684158313, -0.059743778248220164, -0.005612828461400946, 0.009297957386043276, -0.13218768288127927, 0.006295738486154595, -0.10451024652716023, -0.035074006913427144, 0.041470181933616485, -0.007112453540619535, -0.09061379726565597, -0.024945551312290103, -0.01319460336964563, 0.011622690822744567, 0.018958638493160346, -0.016816131215122147, -0.03095221839214718, -0.0631404202247021, 0.007927771173797239, 0.02941968474294087, 0.016420578460089978, -0.011596695394088353, 0.030599547344018947, -0.0645845136992234, -0.03048589216397997, -0.023047089567218453, -0.00889948256431591, 0.15551664070365867, -0.002110818062059646, -0.09256005853247552, 0.030109355457140986, -0.008871767524247554, -0.11153681059558825, -0.007422742300176384, 0.03386118820645272, 0.016373447738257323, 0.07544169577929548, 0.02368296208115335, 0.005190089649895377, -0.01456661701995028, -0.011834856894414268, -0.03779609198626742, 0.03325514977715571, 0.09277508022546278, -0.009077128599592872, -0.040095936162346905, -0.07092367034612508, 0.013434744812343, -0.07459646224793991, 0.024768644660787313, 0.039316920352055106, -0.03323777947936772, -0.03707522723499724, -0.11774864921241568, 0.07589674138463678, 0.002338307166247061, -0.0151236343136631, 0.0061579250111063666, -0.008923542553007037, 0.003336585837888048, 0.0644240201630225, 0.0002455425046329489, -0.005507789250529521, 0.01497607280609615, -0.0798080133511924, 0.0037080462156631397, 0.020774193147632257, -0.06607195867608787, 0.009402472552125446, -0.0892966759151109, 0.062407284773767606, 0.04436558966025041, 0.03290843100378706, 0.0013891883298993689, 0.11646221191714495, 0.03908159379782437, 0.09011168740738268, 0.1261142725108665, 0.050140748166501735, 0.023172250645777295, -0.003668470742932372, -0.07058340646762896, 0.07365928730247487, -0.005202789824119523, -0.005131526107431062, 0.02215858634214102, -0.03949084831328589, -0.0846255686844446, -0.026632291132182805, -0.019048671425848342, -0.013394103265456385, 0.006780800837622925, 0.044521458955420014, 0.004337986368784766, -0.00934932579778427, 0.06147398805289547, -0.08624878979015095, -0.0963826401384352, -0.040697536480893394, 0.06009800147102638, 0.10044414048986347, 0.14187194341263648, 0.113416173062336, 0.05009177087641823, -0.0006896800848735498, -0.028594473783517878, -0.06550835299530464, -0.032738892245584135, 0.028050056132997242, 0.08055702143916317, 0.11054993897706575, -0.020047206178529002, 0.02021824964740422, 0.049220220347025515, 0.08393145772873131, -0.0019959204522161608, -0.07849812527148177, 0.06201699036807321, 0.08257651435213981, -0.007098887409155589, -0.01238312277507109, -0.02340161810343287, 0.13911463010863473, 0.02817070708838818, 0.02094131013906471, -0.04268217762089491, 0.04862258562242441, 0.01994946604780528, -0.03453108262372335, 0.025766969622877712, -0.004481460945355251, 0.07414421137137855, 0.03652566279096526, 0.023430185675781062, 0.05002792301390015, -0.058073767898987175, 0.058910561810223736, 0.12560218090412661, -0.052679553879812754, 0.005592197780433441, -0.01982534942129086, 0.0553715009217003, 0.0914916131704628, 0.1244996335874991, 0.06445776940847002, 0.030602332521092318, -0.08004849823660934, 0.08347470396023855, 0.06663985179758698, -0.04889488537085752, -0.010809521317031423, 0.07515439607689835, 0.06490449198044848, 0.028164436975167077, -0.02446177955048486, 0.08784212124704927, 0.0536247021320024, 0.14332449302845865, 0.12246002292959002, 0.18100869363857233, 0.009776966941742845, 0.09642411524475934, 0.031532842832438415, 0.05950167758408233, 0.025892656922905138, 0.027046645012726085, 0.020456163566350268, 0.05557895654240865, 0.02181062758519639, -0.007409474403127587, -0.05552750780576311, -0.05061405249106591, 0.000449220903539665, 0.05966323431256237, -0.047396210184374746, -0.04086792937874273, 0.06581367957793038, -0.055259432774622794, -0.027853764538772748, -0.056106260685290996, 0.0025691863281518865, -0.027393859781157374, 0.02724286380597212, 0.07668119130192937, -0.008095867862677672, 0.0838540141543469, 0.11579100111943678, 0.14309583956665625, 0.05751904270428393, -0.04606182864077795, 0.03721098611962505, -0.02064211801010202, -0.054117588453169864, 0.04090326499639781, 0.1072030213243108, 0.03256399393786329, 0.035034300630816646, 0.09440743268580537, -0.019447015591318242, -0.05560691140013649, -0.05901679859027733, 0.06866381058203297, 0.009253840673970861, -0.0057113482923889245, -0.025309441799048055, 0.044869352116464714, 0.04808597196580727, 0.09849393400172367, 0.07789963936392502, 0.04402430469041417, 0.010521125318706723, -0.026793570170466522, -0.022836673408831682, 0.12334464198170773, -0.0009256118913640116, 0.02886480079616435, -0.011176774627471976, 0.09977200624121092, 0.09620585687615578, -0.007865383699900141, 0.01658744984091568, 0.05044284665529879, 0.0588350428221592, 0.15567676880922085, 0.07993126813704507, -0.04171023544254886, 0.061017809784703336, -0.007752989566785611, 0.04010641721354587, -0.021879977881827703, 0.007463181948853726, 0.10537563709978796, -0.002860436271411435, 0.007072561262859207, -0.04305612811136023, 0.0012057636055851216, 0.00962447255209675, 0.04500079586524802, -0.02058033850221673, -0.004932273161178219, 0.007926677483087658, 0.0024137355339968105, -0.015005654932507363, 0.014081854634896534, 0.024392683199185118, -0.009906217991915694, 0.00393208783349048, 0.040137844251350994, 0.036436447293921724, 0.070177449885644, 0.01857014399465744, -0.020539160386025608, 0.02048221381564387, -0.009928347593447394, -0.030457787677887344, -0.024430735494146164, -0.10270833718254657, -0.07807742985952212, -0.0005750558156571708, 0.010270190911619261, -0.0022788106052449063, 0.00791522534602065, 0.0049504562908390315, 0.018725652536390632, 0.019400852056955173, 0.007698102114671848, -0.03325171252642167, -0.024623520998466205, 0.022633397045371116, -0.17514312650852037, -0.09233280734522234, -0.040988336836177676, 0.01566979768061776, -0.07265849134118102, 0.011866754425032258, -0.0060926603272442, 0.020676409671069877, 0.09317590177269595, 0.02183175984247711, 0.00014875691057789113, 0.04230072054065457, -0.03904869566021637, 0.027407361015694652, -0.04365530076963313, -0.054160919346561864, -0.018144279357485464, 0.02178716429006041, 0.06329053185992167, -0.0776071379401756, 0.02097090386753718, -0.06734489081035394, 0.031499054625683864, 0.07265294026060454, -0.04027978044679924, -0.012074376449389732, 0.004735682176264288, -0.11849973804713387, -0.11420821405723265, -0.11554570170267776, -0.11769346709063983, -0.05867795629071735, -0.005304112223660168, -0.15223368212727265, 0.026982670985133694, -0.07221454684481918, -0.0021153640222112383, 0.14954081379961495, -0.029115696773388634, 0.04218430639429901, 0.034751460895058574, 0.0855643924164617, -0.03586259106451582, -0.035383228218186624, 0.01862722772309261, -0.07338539887434847, 0.01755232275166434, -0.008031689059417358, 0.03003733730038295, 0.0457639204702278, 0.008571762188691791, -0.014978999724797996, -0.025131524902663294, -0.012002127312011125, -0.03563409753053773, 0.03649055846686941, -0.11740645225220922, -0.029395404926752935, -0.007762169766857443, -0.051957388986422666, -0.03840497069103908, -0.07068188472096766, 0.05359348933623545, -0.035894883811450284, -0.01381541412280511, 0.01627169245460644, 0.025854240565386412, 0.04501518277103123, -0.005789484188239058, 0.047371297867324476, 0.016336301208878485, 0.05386876191108453, 0.07026532926262492, -0.06607284561616883, 0.11926417644647148, -0.024829913987247057, -0.019193864990904697, 0.018857114537635243, -0.005005925504034104, -0.023268167757300524, 0.07506486501840506, -0.04812276810925192, -0.017963604624719475, 0.013821925557891135, -0.006852713979087022, 0.05872129226722735, -0.012008405706892728, -0.08394202560424262, -0.07416115338057014, 0.016741419121831184, -0.015398858784085298, -0.038060349940816966, -0.14115193407607993, -0.06351117711702689, -0.015587531461472383, -0.0594042985160806, -0.05187577019432142, 0.020425199216254752, 0.07756994703731507, -0.040273873346683024, 0.003082247394903141, 0.08805076858584893, -0.08668523484513119, -0.013987287929765894, 0.047539161276800974, 0.020203772020372362, -0.029779147292229642, -0.07005634266292503, -0.032281489298756835, -0.013295926226622167, -0.0348694686512025, 0.005596521876774401, 0.06706585352308744, -0.016767233017889165, 0.06995947700682724, -0.009315904027220283, 0.022311365751604917, 0.04455621915503006, -0.051610905302822, -0.03192493247840034, -0.08561990228902194, 0.09189671971026622, -0.06689529658827366, -0.06773478593040588, 0.011866256201323424, 0.04236527726081394, -0.002200153841421819, -0.040393063516165666, 0.05699494383130723, 0.0693023310304975, 0.015630149012596097, -0.00759629951459289, 0.07099481311925145, 0.02007436178683219, -0.05917260987295803, 0.041049115407462124, 0.04814429296237136, 0.02851187447209411, 0.030358041751959695, 0.015528194881585241, 0.013905888301338758, 0.11093665794294272, 0.029168765575462417, -0.011757542642792699, 0.06498308783575295, 0.03385807075632676, 0.07207924611171068, 0.022414860522275155, -0.046855818301357745, -0.043035581296233125, -0.06984250578439807, 0.015228697874093136, 0.029485058134813176, 0.00434449873425527, 0.012126076231694162, 0.06166970354299145, -0.02822215186080627], "bias": 0.0444545663713103}, {"weights": [0.04345307336441724, 0.00022052699044454476, -0.09116418649776172, 0.017874971128044495, -0.04785188889167992, 0.02467550285024787, -0.056339278745788035, 0.010172329279961633, 0.07637549226121364, -0.040159496043622574, -0.0011016656553905788, -0.0010219360694684587, -0.08672039281561109, -0.05463810803866538, 0.06438647388970993, 0.03068528112319085, -0.016374152399689597, -0.008734280622370645, 0.07266089255619372, 0.06925263227077072, -0.05330248941789369, -0.004014317618880037, 0.01746569461520177, 0.08385643305389812, -0.057954890930415844, -0.05577021095705037, 0.02159764843162907, -0.023090942114988102, -0.08367290146197304, -0.020555822347085487, -0.018435503008726734, -0.02974698165880652, -0.10212216095043948, -0.0015957649359564236, 0.026543411881004952, -0.030037186209054545, -0.0568766884367999, 0.014868697973494478, -0.0417661463979553, 0.022856258408960575, -0.08132098995749491, -0.02854272277278177, 0.11544571581578389, -0.0012076896772485856, -0.061450548035774835, -0.028553024094712207, 0.1022207216383687, -0.03447751481447298, 0.028674747540736727, -0.002698585418961502, -0.05447709105244938, 0.05207305569158857, 0.11086607607844312, 0.031055729897159455, -0.056281513893299974, 0.024797815924564752, 0.03469923466058908, -0.06176047621295109, 0.03489236511710224, 0.01266242055546829, 0.026614025429038027, 0.07459694014605855, 0.012639161717270501, 0.1416281569866237, 0.0756197558649429, -0.0008771968779341193, 0.05298846902609186, -0.08763273050572896, 0.00650031604794291, 0.08349651907832949, 0.10015174582931229, 0.004519353032320433, -0.011405603486296262, 0.06139206218005578, -0.04189943570178751, 0.005467401797629891, 0.046211962154312086, 0.09112119384908193, -0.054841135952259215, -0.01783419701651629, -0.043533747028247416, -0.013177587062547957, 0.0003621494764416419, 0.035283588478036955, 0.13348000670277485, -0.02477600555517942, -0.04143135451998428, 0.052225246385358075, 0.01347472752549389, 0.00907728989360246, -0.005898026458223544, -0.03404442360028371, -0.07641477591300681, -0.0020611206636791243, 0.001382577242096353, -0.0240884110264674, 0.0533266001712352, -0.03143672935770187, 0.022824958406684564, 0.01738117179897116, 0.1037225409432579, -0.030085099983533713, -0.0552617247604953, 0.014888674665484025, 0.05586234518953147, 0.09694266119874861, -0.022668482757589006, -0.019646779091992292, -0.021425468023591, 0.11680711988999294, -0.040009530405553696, 0.04459750278456171, -0.02469928908368743, -0.02132394442159534, -0.02217855654613439, 0.014670401992261793, -0.031212214959894596, -0.0028548521973259127, 0.13396010402954206, 0.06223025668411965, -0.0076192295908196995, -0.11238706517069573, 0.029157505268852968, 0.06264923181779175, -0.001952993282099214, -0.03773508116577031, 0.13197510287977313, 0.092719955725336, -0.0005807718407614163, 0.0036430313979731017, 0.016395781255440608, -0.04675885859250324, -0.029521844477114985, 0.10413378050137569, -0.06874987180681641, -0.012054133379724384, -0.03044248065810561, -0.018346855138795786, -0.053590875149224323, -0.028139625126393675, -0.026531511942784584, -0.07897500016665811, -0.10373691308454312, -0.030266843625948954, -0.11011632412851964, -0.0508942018195058, -0.026611934112876375, 0.05213982918716592, 0.0022401860869150697, -0.0312698963423638, -0.004262333922043908, -0.06136161144828098, -0.030982623252710024, 0.04246266816790522, 0.021399624787492372, -0.07395645710244998, 0.020920928590228236, 0.032068986485101286, -0.009116227559810897, 0.026876527155826148, 0.0063372626314129234, -0.0665721775305256, 0.03723694415877229, -0.00597087526439183, -0.03296428942771155, -0.020344536060658808, 0.030715023455028558, 0.009752116628555662, -0.06913850421438833, -0.10695334592981927, 0.08232450842378036, -0.09655668909832324, -0.06734540381887473, -0.035510561474948264, -0.040355676438688697, 0.07192552483679865, -0.07627562341617568, -0.05700129895170641, 0.046846252069428336, -0.047395878907603314, 0.03184536424741759, 0.05650920216310554, -0.029075937346500557, -0.049962339912483375, -0.04046873413773955, 0.005384929018752532, 0.0036601988707523, 0.05123773674187651, -0.05268495641981424, 0.008957836073970389, -0.0048856588304128454, -0.0419091519562372, 0.06710289059009833, 0.03592016174907915, 0.0249796058255215, 0.09810623734902568, 0.025882899950040603, 0.020265449847145258, 0.010044663496759164, -0.051648117306550397, 0.08881230924679981, -0.026657361630628006, 0.015024653462849017, -0.062077268839079686, 0.040807495524038895, 0.059363519630256746, -0.021954132372712157, -0.03490237191209596, -0.0105909780350399, -0.019720394405047827, 0.05752315074008178, -0.020136933394136594, 0.035003675054102464, 0.027680644225156828, -0.03263234826068978, -0.09716505066256788, -0.060749813080748144, -0.04297207517330296, 0.006910724473649404, 0.013255610126147187, -0.07111321165536146, -0.029271639971077717, 0.018181542298717875, -0.04818719515066188, 0.04863640940527468, -0.026364714501631147, 0.005430458718642515, 0.050660426298709725, -0.037087528819676106, -0.038819892443228685, -0.02904865164921817, 0.04913842444212688, 0.0642863319270734, -0.06579085348748263, 0.10327653668798051, -0.027848941951193428, 0.08872259414467415, -0.04001262341666247, 0.05263418720450998, 0.06823432856459692, 0.0793542752241601, -0.03611987871469483, -0.0593575637504018, 0.004592625877019542, -0.02011238455434538, -0.06921671454852295, 0.059745032937201945, 0.012786103209292745, -0.03650043703628318, 0.04266385759211733, -0.022198724652910794, -0.051754139735864534, 0.016550022846694976, -0.05869553893775602, -0.07873278557110786, -0.015215923350639088, -0.054126340200406804, -0.03736462636970541, -0.06048301955743324, -0.08323352320434603, -0.059643323385892205, 0.002859378106953761, -0.09572333968091061, 0.011219042032541926, -0.006485347788830673, -0.01781409573011585, -0.02349991647067529, -0.027698693390407262, -0.14879311138254667, -0.1500772306159464, -0.10257727978003787, -0.11678394225855802, -0.024327760758525697, -0.006795066776226281, -0.05424058454675628, -0.05584864395904367, -0.049040373421272966, 0.034646033283083716, -0.0654614061027246, -0.036207894316046665, 0.07613545765870085, 0.004180069400311053, -0.09110548400340936, -0.00515388554655011, 0.10216425513595913, -0.07361367851911946, 0.02315630558115584, 0.042275422465603306, 0.008352495231425228, -0.07789142044224089, -0.05098280316935433, 0.02098816161350098, 0.0622138158754001, 0.06101630135799456, 0.03416965626281938, 0.022737442640018736, -0.12129489344212481, -0.12491579215584281, -0.005225322296696716, -7.100929551428573e-05, 0.000783965818086418, -0.03791577813619887, -0.06096194694025878, -0.01829323914399659, -0.07594462459389473, -0.01448529311268617, 0.05563089438909706, 0.011533331624075766, 0.11174701092659949, 0.055109002060196255, 0.00788679356010245, -0.020714003411941687, 0.10459139019344219, -0.07534883775978084, -0.04498027212349585, 0.016171753088896988, 0.13283823844756207, 0.08959543736347483, 0.024001547072279302, 0.043794688476277606, 0.11233162106573415, -0.030230211002560063, 0.0035429653748169834, -0.01956050355747453, 0.0021953174356969017, -0.04122606344344342, -0.07097846150829798, 0.06479209089901848, -0.07125686063059922, 0.033644466904968064, -0.037255342232590624, -0.010111270851604503, -0.039469857230368284, -0.03306430181656819, -0.005826906770378934, -0.015350948648456413, -0.01587411538979742, -0.0632468433409327, -0.04162510361385827, -0.08554581790958285, 0.0489782925447435, 0.03988081123097363, -0.07534295880080308, 0.01786423328230658, 0.019042548893892914, -0.017716891031564475, 0.07617094680380605, 0.07395963969121419, 0.11711233326147552, -0.04500690486901652, 0.05937615591088926, 0.030803004779094333, 0.011870914092326162, -0.06529389370533067, 0.08534431605043384, 0.0009504738024568492, -0.04792923819826079, -0.008216734727497354, -0.04266291102692256, 0.04879357051118471, -0.08259464350309188, -0.024281313523769655, 0.029834212132029404, 0.033875717380103386, 0.08887812306027429, 0.01757795049695636, 0.0916623951279356, 0.07004569553568746, 0.034593698848692185, -0.03225270287918011, 0.05043060622932478, 0.006879548517242041, -0.07849377159444927, 0.021748572446303377, 0.07119097264630916, 0.039349712894399244, 0.03912110934472857, -0.012134418971516113, 0.001842032899708475, 0.018606651996457713, 0.043553721755829215, -0.09183971980728041, -0.0063072551811879105, 0.09290015554685106, 0.013161322732767225, 0.02671824277158002, -0.02146736917779151, 0.02476507832729543, 0.06363226492464032, -0.0790494700904032, 0.0711396524552364, -0.025042725486328365, 0.04244341281565342, -0.02096593497627389, -0.03232268256509121, 0.0017561493133665489, 0.04282652216372761, -0.08347399672150141, -0.015214889628165707, -0.03647236360008712, -0.016920074782478024, -0.06930124538584687, -0.02600106129667649, 0.10549593898878644, -0.02466426482288372, -4.5982540472699294e-06, -0.04437179973292597, -0.04815689446385608, 0.20910954073081958, -0.11293023434092773, -0.009869749586737446, 0.01488146065531197, -0.001915768870159609, -0.08791638627366244, 0.007199840301739929, -0.09338624703314193, -0.08022130809620617, 0.00768653031619055, 0.0027625829808902718, -0.06535577678967952, -0.03422248075437739, 0.038863484528121536, -0.020543652623149278, -0.038149741653592334, 0.07788139380982498, -0.06738601401466698, 0.03495047201304564, -0.040547000741819904, -0.034408330264347725, 0.006570222415269992, 0.01779819157049344, 0.13572050742097833, 0.03874912042882441, 0.02925270846951006, 0.04878823194939224, 0.01012451592439079, 0.10279016302829391, -0.04659538003784445, -0.04439040070803985, 0.017005103311570596, 0.1293744125215064, 0.010177924640536115, -0.0003647163154501765, -0.012894356678441797, -0.0206127175946526, -0.002787281912403389, 0.02061668354938118, 0.0861473220525323, 0.06298384241122106, 0.007025495966000731, 0.026773406748092476, -0.03138796055361061, 0.009323558126281552, 0.012863587934811968, -0.07732689921278142, -0.017993886549824607, 0.02845434296121939, -0.08234427691826374, 0.00691379169259555, 0.06266249799490003, 0.050345784556129494, 0.02747664772706266, 0.045931884817576894, 0.06237556937136223, 0.060348742181790385, -0.004046780552795941, -0.01686140918748124, -0.012394191943461825, 0.047347348626495867, 0.131355751231433, -0.08371277462824867, -0.040133913319966186, -0.0579037004344213, 0.03613341319414501, 0.06628572562755569, 0.03953291259008295, -0.0483598379786238, 0.06225230459677055, -0.036807435589443334, -0.003135435132918269, -0.000650911676983064, 0.10658958307027258, -0.0007327606982508414, -0.011911592761727333, -0.11610381633312163, 0.0436942054393495, 0.017924863005404672, -0.10735098474196078, -0.06325118967829238, -0.031134174720712032, -0.05525279190438789, -0.08927831719674459, 0.07332563183883273, -0.05766215001241369, -0.04869131659568837, -0.022754997751696905, 0.02850906378509751, -0.05948298913019574, 0.03534995268541609, 0.009065145272773776, -0.10522201556956537, -0.024781189412873578, 0.049188355547651635, 0.02429068384500529, -0.03919190144940925, -0.09343837584978129, -0.06713839630309947, -0.0508898155613655, -0.05670944730531537, 0.027426239658131416, -0.023099247563340496, -0.05142198662737, 0.015180929387830448, -0.01673615182761212, 0.0015504030415533004, -0.048071584581900244, -0.08290132166493094, 0.05047364860367332, 0.0631870426721164, -0.0452755640180484, 0.04959956521402563, -0.024417594396359224, 0.02164524277189847, 0.05414393412363757, 0.1157554581388441, -0.016793110768005617, 0.07342995650972234, 0.006118394264040902, 0.01971882843005652, 0.030345988980782973, -0.019754518172153214, -0.02468271243306939, 0.01579301762154948, 0.04657105137032921, -0.05612047341904838, 0.04999693346924814, -0.04954159752445138, 0.014170581610304179, -0.07700838088570724, -0.06667124508231928, 0.15457526539665178, 0.060623318253306295, -0.058161125037076704, -0.0018043838783899184, 0.02672707821051695, 0.11352834907374579, 0.060076624522864726, 0.010680561498605521, 0.10500827558464143, 0.03257801860136421, 0.09368455917706305, 0.07796916824778242, 0.0046874048268874665, -0.06691137800713978, 0.03716244407735264, 0.07333958970506066, 0.03679783427362465, -0.009439997023692045, -0.03550884482239429, -0.002816548759181325, -0.03000503261426951, 0.12078207261204438, -0.06020686739456544, 0.02939265951972309, 0.01820346882326843, -0.0947662747454165, -0.038195317743704986, 0.029962703571409597, -0.0049501335759470026, -0.03787503210584161, -0.02172641677488771, 0.023246076628618932, 0.0010296921760626666, 0.06592696012962763, 0.011018298223210522, 0.02625547647221277, 0.06606454280620416, -0.06058801789036791, -0.0005510035531408764, -0.02836804191138165, -0.034421805050458956, -0.04675996291166051, 0.0071206719513143436, 0.0646331718268876, -0.028055675754609953, 0.023623782411392576, -0.034537694240104735, 0.02719150757787849, -0.03703410793075379, 0.041168785342387985, -0.046134052393173114, -0.03585459592617315, 0.08673162180532998, -0.03234469745666247, 0.031176429975129833, -0.04444523124336786, -0.08622863239587696, -0.019485949579434347, 0.12708692770491586, 0.07338659563139528, 0.15704262867283883, 0.008588486497529425, -0.015697032566271894, -0.06509513620320594, -0.011677471961671754, -0.10188738610587773, 0.0310491417051296, -0.01953293053862675, 0.05995338491274244, -0.06363932726376668, -0.026611534204836786, 0.05060881301118047, -0.03355906978594603, 0.032157845972560786, -0.11209058844137079, -0.0666453066494741, -0.0026295976551363085, 0.10835017030254346, -0.04035905458148789, 0.014150424426661009, 0.052864282291027645, -0.005918228194537219, -0.017481787143124778, 0.008440916558969164, -0.01924107700737799, 0.0009828348915657896, -0.07142828250978422, 0.04885623481024006, 0.07311540489030886, -0.04524606463813874, -0.04847109009126152, 0.013819641004970911, 0.11541271953358286, 0.00806871935241756, 0.03479418114577998, -0.020085778989154382, -0.08859715738653397, 0.05413357287850547, 0.04338203971503214, -0.037964906120338, -0.018960916939233484, 0.03739178469441911, 0.0621158670558998, 0.08664257166964111, -0.05004763373068703, -0.012045908262808889, -0.029525917815773055, 0.02858547799956709, -0.03631622416935756, -0.07215280207961652, -0.0092778948137851, -0.09639322788003894, -0.047614921654880286, 0.017176237353432468, -0.056186851174854294, -0.08311564781385346, -0.034874301586229985, -0.01914402648754047, 0.022867619279693472, -0.03831472929488092, 0.02694073650020555, -0.003680903694501367, -0.07141401047334565, 0.1262268342291607, -0.06763474130143567, -0.03916222386959063, 0.07419140399053503, 0.07762520258711525, -0.08937836526387279, 0.003960505814164424, -0.10818938677423973, -0.04104619473008475, 0.052598420145271156, 0.07305090355253634, 0.012878743020277786, 0.0897918856571935, -0.034156093780260806, -0.052026460048021056, -0.07811810923254867, 0.02969747669937705, -0.0646701134189408, -0.11559607571166927, 0.03215572459104373, -0.014300014769125017, -0.010924226129737032, -0.005033282174686557, 0.010576944511861851, -0.030744087276796166, -0.004437624855942577, 0.05774019091216841, -0.060702402552137234, 0.009297765349625769, -0.034185863130927696, 0.014744754254758062, -0.06998335471089187, -0.02965250364142932, -0.11707074030045604, 0.0792594340320919, -0.034216361851824584, -0.01040972602774532, 0.04638680282360503, 0.011712861174174794, -0.045526588894544744, 0.022147981089095638, 0.034384134649848304, -0.08874600028612502, -0.027378886226025707, -0.07202297164776858, 0.05546987071227893, -0.07577803912811719, 0.002249629723183853, 0.06628587901370196, -0.02143710506002913, -0.022464106743204277, -0.047505241240358174, -0.022543202820063748, -0.004858965368942818, 0.012288397968090963, 0.026433970174047205, 0.04665355783159981, 0.08480554740072434, -0.023858837466720913, -0.03448319049646111, 0.014315830201087492, -0.007329295647679468, 0.040230361655478185, 0.024735226041680228, -0.028497659670427937, -0.0029965310212697565, 0.05673323343101856, -0.05673605979767743, 0.009866269487554053, -0.05696900030211842, 0.0993853439121517, 0.06908733522196343, 0.0033502007677179793, -0.04753673248787247, -0.10815745699346974, -0.006333175171176443, -0.037189452767414186, 0.01848683337061602, -0.022531233835888096, 0.014780665305603078, 0.03065537212813939, 0.0072817841979339396, -0.0699255940896227, -0.09683128817806999, 0.046558041052643745, -0.016822945573637223, -0.07432282391756011, -0.11086090375125254, 0.029556778973118654, 0.016833351996221435, -0.05695441327043167, -0.015622449922283432, 0.058774592251922976, -0.04107115048620307, 0.045558285777674505, -0.10276427954467167, 0.036527890964374025, -0.11065703041048353, -0.06356067440933538, -0.0010805000600817784, 0.013571407472234336, 0.039843443587603465, -0.06428184938230404, -0.01586082992027812, 0.03458147710109443, 0.0761749552373642, 0.07175814496646271, 0.051951357253479394, 0.027928673066287008, 0.10511361205918578, 0.053110519685891554, -0.011919613334272364, 0.06457541923535755, -0.03162778429995736, -0.0035052959544445987, 0.05832699117680603, -0.013997252984809097, -0.02925043547053654, 0.0459894833697591, -0.0057638699768585355, -0.027035676814211346], "bias": 0.01676460650628892}, {"weights": [0.06216605972789937, 0.005168118308985353, -0.04005709591341569, -0.08210479830544833, -0.07745329716559896, -0.08926212929079513, -0.0033649192186660116, -0.006804937578790868, 0.054884793137191225, 0.06507372390085056, -0.03652973136292883, 0.005894607049657147, -0.00042899029385469543, -0.016571492729559642, -0.05585040656926743, 0.043531379676991375, -0.07238652326541677, 0.09466613424385159, -0.002654495048585793, 0.004693290215924609, 0.046235514797430176, 0.01854230918694814, 0.06935578304579632, -0.06269023622964838, 0.015490298572559012, -0.06416113855609813, 0.006134474536102197, 0.0031546211585512236, 0.10287831684669338, -0.015938543797691353, -0.0003691294938466075, -0.04821882323661234, -0.06509778165472116, -0.02995509320538902, 0.053812750540559215, -0.04668522693460294, 0.05392850063399309, 0.03968700984222713, 0.047984582865378864, 0.013521024119866198, 0.08662074658908406, -0.009239947330453458, 0.050238696872375366, 0.04359823300817515, -0.0017605387207130989, 0.0653293930961233, 0.04633189647199967, -0.017389293571808965, -0.0547670442626897, -0.06388366426107078, -0.0026241428123415615, 0.001646821681194255, 0.004151780737772501, 0.01488692535970332, 0.03815602290217894, 0.013760794196269719, 0.056182052804371385, 0.02296416509029577, 0.02699652453276277, 0.05811639886899516, 0.033183416510362385, -0.06429841481559935, 0.02280843932756717, 0.12565772707329223, 0.027662001316942516, 0.05297432156826636, -0.0720281421219996, 0.0166390268777556, -0.06627081162614806, 0.00983355655042065, -0.004695840705519285, 0.000642230507930104, 0.060631181687309535, -0.07210246127296499, 0.04129736209732948, -0.09385118949661198, -0.02883336268120148, 0.010418726799623454, 0.03952644274760746, 0.08209595643121373, 0.10146835254461646, -0.0215840443335484, -0.023136570028824455, 0.03384890447667189, -0.021107431174693457, -0.0017480980047257506, 0.02594148512036414, -0.04076340536330905, -0.02850130841478279, -0.0606482434169976, -0.07609230718752787, 0.042460030210531546, -0.017712579751860205, 0.014865676609742107, -0.054450148633439235, -0.0382470682558797, -0.07154410595978364, 0.03410825718517674, 0.0011338258335605866, 0.05005384502296147, -0.033969437374027606, 0.08974518336049331, -0.033117401005228225, -0.06402550771535101, 0.02004520170825093, -0.037821224169745475, 0.03244254045786069, 0.0650397774892752, -0.019898250358439378, 0.021144577076247784, 0.01902473127242578, 0.00925100098578402, -0.06802505362171216, -0.09148060135848149, 0.029912299427836603, 0.018682755456897092, 0.019726348392009548, -0.04723985315845129, 0.07827147754260319, 0.05146068614392862, -0.0021057997862630024, 0.05512077984840818, -0.04284396998528634, -0.02582324416349478, -0.006220741641915481, 0.03949164882433458, 0.08123958234999543, 0.02312649615978336, -0.019266507095936285, 0.008640444408081229, -0.04176565532201714, 0.011534776545408435, -0.058068372810765836, 0.03726057324567273, 0.014513382666632633, -0.08221837407469695, -0.00584621473972134, -0.013949442681453306, 0.0007736501649452538, 0.0247161515603325, -0.014572085776196236, -0.05036472186166791, 0.078134847689446, -0.004025995050036994, 0.07935590795653648, 0.023667777403147794, 0.07629523446288188, 0.043898815743693365, -0.054070820411657936, 0.07120386910798758, -0.05431007941274985, -0.011752711177251409, -0.10980832261683059, 0.03773556473153526, -0.06409859716959143, 0.02165385303396815, 0.019304680546686718, 0.04446285244766705, 0.01618655607696196, 0.026073866111422293, 0.024823890483464603, 0.09695456653282314, 0.037742256498623276, -0.012807228748842214, 0.0858419078109139, -0.018735459541830063, 0.030664814983656148, -0.06317917205538787, -0.007691593997068457, -0.018710464135543538, 0.00559720158003972, -0.025921601696950496, -0.06279815209715037, -0.011021197836248973, 0.001807999251552022, 0.0637093623800512, -0.11585649328504084, 0.019156400295831287, 0.05452281320603441, -0.07409805038252697, -0.12125170939565971, -0.06295365152983738, -0.012314338945020566, -0.03828846736783203, -0.003362055606519144, 0.01640584961904989, 0.04340047745885051, 0.06342438834539481, 0.007943626212378475, 0.003964043949878939, -0.07869278898918779, 0.0034490086844707986, -0.05785693116112201, 0.06095055788249761, -0.03773534315067561, -0.007469889444357462, -0.061638098890964756, 0.0031945683612647864, -0.006975932018584966, -0.02180887922304939, 0.042171632957535767, -0.03636301447337933, 0.06300236322739135, -0.11370216777065226, 0.019605260979390398, -0.04009929732054961, -0.008174770344112013, -0.01592828920080635, -0.13957116739841527, -0.07613321348432014, -0.04925616530120366, 0.02480833661009834, 0.020290989204496006, -0.012239681724081195, -0.000965139150957752, 0.08187978087812985, 0.06498492917828748, 0.08442130200033139, 0.03738072518504544, -0.011530458088649671, 0.01958900616115107, -0.029025985353304435, 0.11380085840901763, -0.09352788377376693, 0.011576069915864972, -0.031414293646132775, 0.02855470717138386, -0.05468159843187228, -0.07493954895112762, 0.029730461754353704, 0.013150968586417833, -0.08261283859563837, -0.04035751781124085, -0.04877788519470993, 0.02994856383849603, -0.041816808299562164, -0.1048926303969289, -0.02646853936352025, -0.047685828254309025, -0.02041450244315853, 0.08680191582384533, -0.018975771516462975, 0.03290138076317007, -0.08617927543445025, -0.04836968985679188, 0.016403746836702218, -0.009663907500078376, 0.0308178388041638, -0.03735267598711099, -0.0014573237274951812, -0.0113485721627613, 0.04200681662912335, -0.08379983759985575, 0.07304433665386754, 0.037929666686748416, 0.05661804193428669, 0.04909755742642809, 0.03481447077786086, 0.015587482704233218, 0.006113868385911005, 0.01791671251971989, 0.09971430063013975, 0.002651386312088057, -0.06316306690004345, -0.08497627258129499, -0.012258454194173447, 0.010994482673170252, -0.014057166518243652, 0.025921918884677566, 0.0473060937796214, -0.05285259328679896, 0.1001877767177837, -0.024711024210353094, -0.05138410363103162, 0.010314199106202113, -0.03462022417669398, 0.014675183976278434, 0.0066939232125654115, 0.016910802007406023, -0.039922104306465825, 0.005424880865783875, 0.02703939858894572, -0.07281055461093874, -0.06892198365813272, 0.02366259802025957, -0.0070446369577243624, -0.07492974128335178, -0.09537620404563657, 0.025629922015659702, 0.10082936108097851, 0.06299899787359878, -0.0858266005262268, -0.04579034603356853, -0.05248702397357091, 0.04654755313222784, -0.08240033342597664, 0.06091209714512588, -0.011150762306106121, -0.025816688507562628, 0.03640395159980983, -0.08937662174198098, -0.11862566506650907, -0.06378230204569033, -0.0172179854355944, -0.01568908426858501, 0.04971973878518379, -0.0011751873603407183, -0.02380881988315558, -0.0413219532383919, -0.04828830126943527, -0.015102792965243186, -0.12448615575659103, 0.013594335289725461, -0.03711519541410448, 0.07463256510833315, 0.0184644791561967, -0.005217401892432938, -0.0214532821654775, 0.00853141283879116, 0.03447123393679247, 0.036516172713760724, -0.03742143026385353, -0.07922120766664857, -0.014139450381401526, 0.022277177966397128, 0.07459788253522301, -0.08878224865559649, 0.023944135611002008, -0.010051154033339421, -0.15399072220954232, -0.05382509015890661, -0.0364948415112268, -0.03234201242895539, 0.06261291092644782, 0.04425787340860096, -0.10054477628215079, -0.012374039283078113, 0.00038734054363244214, -0.0201718550299462, -0.06844817745729198, 0.02276691910912891, 0.10112338721864034, 0.05148241752495695, 0.024247029034127326, 0.0055982793989064195, 0.01616022827421136, 0.008523851157190458, 0.007714015671152439, 0.03408642191587426, -0.06881905870731556, -0.017603047769095877, 0.05861380885621169, 0.12206342700670933, 0.03502048087543421, -0.09460587165667945, -0.09417648829845401, -0.030037945081019056, 0.03069440472992419, -0.01697487242222, -0.031161445708983094, 0.05164477884791936, 0.05599776216309409, -0.005856091907576337, -0.0182709350663415, 0.02963064605620913, -0.0753811226886411, 0.06661869973082267, -0.024972863208785532, 0.027035724575744654, -0.01240865041380305, -0.0033322012726333928, 0.026142835430524758, -0.005139158687193181, 0.012412662126137529, 0.03510327383750195, -0.02360538099368576, -0.11949725843367259, 0.08838588450514423, 0.043250469108513406, 0.0435142113079065, 0.025610116476609865, 0.03480942709549733, -0.0649991918995583, 0.013862409703973268, 0.015569513559160836, 0.012028123934465769, -0.014132894366780219, -0.02543968444321295, -0.06875681130725386, -0.05968038207235725, 0.04970769975237005, -0.032432110196365965, -0.07403226829447385, 0.0781209002899477, 0.03674513992554533, -0.020689349796150287, 0.04375637248778534, 0.017053116153425488, -0.030768492305232653, 0.07752448064526102, 0.01709180568576159, -0.06276098720472055, 0.033228600583032036, 0.12550304520785052, -0.01791158736749374, 0.028687594047530924, 0.06119749561950342, 0.11036650568489229, 0.0909286105533036, 0.062332438916799675, -0.03872139944327608, -0.0011079621773082175, -0.07066325062705604, -0.00115005170346235, 0.0027965513665603667, 0.06505417489886131, -0.034107785161163306, 0.08886922181892129, -0.0014695403753710212, -0.03607315494985864, -0.09962921275619839, 0.04747092734530655, 0.10279052743116104, -0.014012235755864251, -0.0013490680424473043, -0.02996241797786579, 0.12013758165030004, 0.05077396059675881, 0.06098301799543088, -0.0007303015798952548, 0.12773425563376806, -0.08793856517076536, -0.022707258478342207, 0.011796721065188509, 0.028969270311969456, 0.05126216443164609, -0.005123882852259346, 0.10772804060310215, -0.05212540203847861, 0.02200887198884276, -0.046410675993552766, -0.0978252027540517, -0.10600174008810366, 0.03628339760937239, -0.03667670765437747, 0.009704280501228815, 0.016397377765339456, -0.023165981686023733, -0.0473130787302768, 0.10476688481590347, 0.012288509641863885, 0.06622511870695373, 0.0672325740094622, -0.043900981348552415, 0.0057107305106825395, 0.04022485736866403, 0.000101241819289057, 0.09053466034712823, 0.020084863239994158, -0.06707570210394272, -0.07302874523663626, -0.019285194682142244, -0.01992110674053703, -0.02960625070796334, 0.017425558729651857, -0.04921085356753558, 0.09825625631735588, -0.03731944563921517, 0.014599375394587338, 0.02269857413523393, -0.11067799629748559, 0.02995742928264642, 0.04193593670687556, 0.0046001902712115034, -0.05986749899189021, 0.02263255882903358, -0.03266269074904664, 0.019179986364724663, -0.13798309584606913, 0.012436832381867732, -0.00862942639441564, -0.06661323746493317, 0.02201615311422092, 0.05150270743190462, 0.03179829336088926, -0.058871145952678255, -0.0545669600415567, -0.02696657797635862, 0.06943247814437814, 0.03892061866508649, 0.032049358224493354, 0.07551324170629933, 0.029695864871843013, -0.019909955848500402, -0.024467998489642043, -0.06155972710050454, 0.024076829714400037, -0.00689131451127753, 0.015829469510001894, 0.01419295246488661, 0.0482103654054081, -0.022377747455080293, -0.1065250903169605, 0.025498854560270727, 0.007646366995107523, 0.024179051457719303, 0.023129733089175895, 0.04007666278811785, 0.0839854976552425, 0.049688459562521776, -0.07540544149456806, 0.018779601471782262, 0.008947540821538005, -0.01624742996884734, -0.04235252748974682, -0.04920573450189193, 0.001223040224794798, 0.00013585223276614967, 0.02935497586988979, 0.0007819562285869222, -0.05268408757740398, 0.011842268767410541, 0.07926112039700867, -0.019957609698898086, 0.038487097553475076, 0.004799640435970225, -0.05248785062864765, 0.09021409650094253, 0.016065525181006, 0.05148277929745431, -0.023985317654900598, 0.03962327900913669, -0.017787496707604357, -0.054204795382218125, -0.02992366840653575, -0.041166582542231184, 0.10663143684795637, -0.08570173816517915, -0.09043924593729312, 0.09733577627389627, 0.013232343678479731, 0.03203193445392242, -0.04941120439895371, 0.0243337490809366, 0.10987153475488723, -0.012318017132918137, -0.01992845662591476, 0.007460832980905321, -0.01999147954645186, 0.11465484562376453, 0.06618509470896546, -0.05890762198092922, 0.045380868120474684, 0.01612354221609823, 0.1333214283996802, 0.02388937841700021, -0.04556846534984162, -0.03889834022559768, -0.05818504177726443, 0.03798609551678859, 0.045686690610082056, 0.05173887238302605, 0.029855093320462375, -0.017824191325565484, 0.06605705360490222, 0.01879656084338663, -0.03213326325302511, 0.015938334079989583, -0.054283475955143816, 0.051943209995659725, 0.1463429498361236, 0.0561983385440826, -0.016354455938425598, 0.034310385026439065, 0.017236429678244552, 0.005438627075019557, 0.01801352284651503, 0.04162610622026934, -0.03565964388017494, 0.03345635791959435, 0.08083389143726312, 0.06401682879805078, -0.023637111051112863, -0.05007491428084514, 0.04731645546004427, 0.022598361930534445, 0.017389805340241916, 0.05999676189225286, -0.08732993035848909, -0.10382180698603005, -0.0033642365063571117, -0.02448625617803203, 0.031382792396785875, 0.007121690875584393, 0.04795978431942909, -0.024681563281884693, 0.0889042723946439, 0.008245678285563633, 0.0198507364450264, -0.036512161426171634, 0.11482506640880566, 0.14169372001426583, -0.12279940309369076, -0.057253292811902314, -0.0460816550797941, 0.020123931425467218, -0.03945581151848475, -0.031973638423833925, 0.032513775055441715, 0.06041754196336152, 0.05761495249435767, 0.0894411525182809, 0.02629946506366088, 0.019843021007346504, 0.048450603449743446, 0.0071508770301774785, 0.013862970393799964, -0.05743895701662775, -0.13025678580035704, 0.09488945825322603, -0.058576958500682536, 0.04624965303799832, -0.08381682004232273, 0.08021580524085173, 0.034042077244765566, -0.06392343787684503, -0.07547596047872238, 0.005415519403259223, -0.0031601719274349043, -0.00945903428463152, -0.0098899369893714, -0.05439046051573986, 0.040750422974356076, 0.02742904700490857, -0.13990821270730766, 0.0923932470305273, 0.1062494476522424, -0.029863690721185564, -0.05158320635652189, -0.01063888422367708, -0.03649963296552092, 0.01890695885770252, 0.05035544789567998, -0.01302728346871631, 0.03763029567574765, 0.046197840407027575, 0.015148851192637756, 0.04245188293280977, -0.05352172958713259, 0.047903742432120686, -0.026590353793354306, 0.06613434471300052, -0.06889799840523278, -0.050475538254563725, 0.00019385732562772205, -0.030831482644925974, 0.06836167329467663, 0.06847479462154515, -0.020183822617174423, -0.051532683427725184, 0.04992005424197166, -0.05776371250300418, 0.012041838214337434, 0.062483248826329205, 0.0718233511248179, 0.054204044877197946, 0.011300520871881697, 0.02785259951137497, -0.08021669103486138, -0.04256686426107801, 0.00036554104700310246, -0.014398708050389796, -0.036786198204698896, 0.07441560815962112, 0.06634469170587404, 0.02388522139943049, 0.024664486694283626, -0.0029628205909560403, -0.0002643767285049044, 0.041609006549392674, -0.002397656045164057, 0.006699381767599124, -0.022368737210751707, -0.047869966625284865, 0.005440214508148662, -0.05058441518435678, 0.041894925905320374, -0.022275734952494457, 0.0068902927900016415, -0.03749493049704625, -0.004742095942406161, -0.06922315097609713, 0.05247842891735641, 0.007605038898722555, 0.005935043055798145, 0.08234619508508816, -0.06899351267416869, -0.04811894855967922, -0.052906322123455314, -0.03696323581672305, -0.005249605924340078, 0.03356705633570105, 0.03505135354873877, 0.030250744326407973, 0.007260049189704449, -0.05020759192576966, -0.08973691379047402, 0.032408818830265994, -0.032817873797737485, 0.03952930563313878, -0.0316612709250232, -0.056511807206370834, 0.03158311121404922, 0.05308880447231949, 0.05761707155157157, -0.034065672951809525, -0.03169853743503023, 0.025402672713571713, -0.015361089441014263, -0.013934808181715662, -0.00492807479943638, 0.06627214529299813, -0.08383678511031799, 0.04769918418467274, -0.0065640630890864814, 0.020122345861575842, 0.07251167955184344, 0.03996460496878889, -0.0076225806681498864, -0.006459944972493204, 0.03509313050136173, 0.04178205565075529, 0.02313963301219693, 0.00010127192033460528, -0.0468789024472622, 0.02971054606056655, -0.07850449863934582, -0.0229293294119182, -0.06576285656216523, -0.013676204956104483, -0.02977344786578165, 0.06742432453266431, -0.0054941679385740625, 0.010661945650076013, -0.01475774322691101, 0.04913906679719066, 0.013293411431684011, 0.025788915270676543, 0.13152012266665564, 0.055141618730486425, 0.022399481211997332, 0.008596732882418152, -0.00543671227345714, 0.006018592909596613, -0.047939948070103815, 0.027876926698353576, 0.055444283307959676, 0.061967607137025545, -0.01121647107375873, -0.03924212546490804, 0.0014031750163015664, -0.012170097483466974, 0.010834759829289536, -0.06631462281532546, -0.08958069914865974, -0.03244153335928258, -0.04460319863498886, -0.07405145387612695, -0.0785340529141515, 0.0369634285542285, -0.018970719275729592, 0.00015478329474835986, -0.05907487505259409, 0.12066737350314131, 0.08022648417055467, -0.07231338822839511, 0.0025625204121154533, -0.07617203755039388, -0.018351618698625567, -0.015651744647080815, -0.08345692095200434, 0.03791466689400201, -0.028895940509761017, 0.006950143720314027], "bias": 0.027422066033179777}, {"weights": [0.0008714594160656567, 0.00031519393227058177, 0.04083987323280238, 0.013293701137261301, 0.01085706055735896, 0.00904061316339199, -0.02823128339030741, 0.0342744867511038, -0.0018062597519365232, -0.06226316219862545, -0.017385205597727302, 0.048401988117509905, -0.005054550291153243, -0.10112417936334847, 0.07330545663176496, -0.07473617281489753, -0.02110580264806726, -0.032758375557980744, 0.05658366089630099, -0.021289374473294882, 0.012999597583147973, -0.01577144654401329, 0.052295958838939234, -0.06708093317361426, 0.029065529624497266, 0.024107198675531, -0.02141788808807211, 0.02241885489977798, -0.039175642584268665, -0.08043336929589415, 0.03753915612673718, -0.021326731858780656, -0.03829121753765501, -0.08990994978473581, 0.13952876596874123, 0.0007895504984932095, 0.030746678325554163, -0.09757824672343281, -0.019853959117704087, -0.03383793608488976, 0.03934255134750966, -0.055659371970629416, 0.012338393033236042, 0.013414992064528241, -0.006025602587925276, 0.023042236112299885, 0.042324418174924765, -0.04277405019099304, 0.012235108841336126, -0.04121396109748855, -0.017628279877649228, -0.09283352926713094, 0.03445797062969698, -0.04423536104997173, 0.01639933491538254, -0.018430327163215084, 0.09214840226364328, 0.046584731875608985, -0.08075992306698176, -0.04866328400472301, 0.027977792787770087, 0.03717185034810661, -0.10004787241375071, 0.03782107038421541, -0.09286125203667873, -0.03753186882310296, -0.015775127173769856, -0.014123630071190489, -0.0368118440404451, -0.014733157430654415, 0.04426272969291295, -0.025827985222141144, -0.058976830817989295, 0.012639972183391074, -0.026709970665293327, 0.00880671217619106, -0.022999980629393263, 0.019997326640227266, -0.010195317748526136, -0.012771350029664265, 0.03730119866270596, -0.01212012960909251, -0.10816138975697219, -0.03203864617038006, 0.019042797179932233, 0.004809277924631337, 0.08520781291187007, 0.03506264431245208, -0.027266533714179864, 0.015260886941124251, -0.08869619460473718, 0.10811343520619096, -0.02470599198543123, 0.018217804388178032, 0.03215473255236404, -0.07162852451127563, 0.042895214093524994, 0.02256784491013684, -0.015077016178459223, -0.1406546963234719, -0.03273981871231561, -0.028484190494156708, -0.11766245621413064, -0.06386813010126137, -0.0049422575513305275, 0.02786820595888105, -0.0494974879125075, 0.0035896552113862446, -0.023166989126175982, 0.005726628415548061, 0.05684890870950719, 0.04989848753747964, -0.030110159764170315, -0.055337392745777494, -0.02972118049641687, -0.011186975568287114, -0.054219144978811036, 0.006431465007018133, -0.012424030828566406, -0.0198576690962563, -0.03248283526439664, 0.030398206105603093, -0.029401689967359444, 0.012994588834816521, -0.02262711726934495, 0.05836346369144337, 0.03018747557124378, -0.012466394259908802, -0.05334061481685442, -0.018841887222500613, -0.029883836564205533, -0.046681466417182425, -0.10538084198407906, 0.041002476368182966, -0.017860596366969874, -0.04190398863823401, -0.016443795080522346, -0.04821569229735975, 0.028272765825193343, -0.04450753500833237, 0.0317196249143259, 0.07554301521687468, -0.06502076648885709, -0.04983916326402105, -0.09930615623155756, -0.10619013274766899, -0.026688913618170478, -0.0049769075050025546, 0.0016674078948154304, -0.08886747564547644, -0.0652092461446171, 0.003045429478496594, 0.06896509751451169, -0.07095356855867267, 0.015825806140417727, 0.14458184198653792, 0.03914050993017312, 0.13346147067957842, 0.05407947091133686, 0.010326459829002729, 0.004541872201375605, -0.044487217147387945, -0.07816814641893806, -0.08253136025063826, 0.0529257997319689, 0.045890783911808466, 0.08543761607058604, 0.0014611969615692375, 0.03948598258199061, -0.006950322361921925, -0.0059176041839255795, 0.03689934156833241, -0.08123173409423153, -0.06119425153859127, -0.038798141585257184, -0.04702483212332715, -0.0425336240842431, -0.019168288050119293, 0.08072001459516463, -0.0285278104990445, -0.003523719566813723, -0.00965999247892292, 0.05146808080338457, -0.022247595742835875, 0.003334972528757198, 0.09809924319619825, 0.08574610623914634, 0.04037435786153154, 0.016743288812632387, 0.012292673576050484, -0.08516801312132782, -0.05568975136764694, 0.022054921553214823, -0.024606732933010165, -0.02256556509480766, -0.0036947937654228575, -0.0327996416301807, 0.03633427047389102, -0.020125975798401058, -0.055640769656099924, -0.026768528666765712, -0.06151756471938331, 0.11520790985717892, -0.035056589031700926, 0.03505444036404957, 0.0009760659511926271, -0.08531849813433606, 0.0170459831600978, -0.10768700300354907, -0.04552257575779021, 0.0015340104281428995, 0.006420038850222962, -0.015023185580596298, 0.010672166698574948, 0.022364182914337054, 0.06159813154351461, 0.01827815265462255, -0.04787237424704887, -0.029657373308850758, -0.05050538853420211, 0.08706949842308935, -0.06820009740999804, -0.011797319331262568, 0.00689900373347276, 0.04230130878065673, -0.04627672371036321, -0.010565847179623318, -0.03677713641244562, -0.058595545839208014, 0.044068498031862025, 0.003051561006562253, -0.016702528031914052, 0.08890435336318217, -0.011169749242621948, -0.05020888007018444, 0.016374621051203932, -0.019691087950174224, 0.06015284994854, 0.013772538814878553, 0.022376252909104454, 0.020581285317830572, 0.04557979382343135, 0.0049025282835095324, -0.0027668964629812146, -0.04008049342597722, -0.014150631634078873, -0.020965064336724546, -0.03831982440105494, 0.06603073208985277, 0.04906318360969483, -0.05680312612977632, 0.016864501923744793, -0.013729229234839838, 0.009436695111503676, 0.019998830918130775, 0.07171671415150345, -0.009770492466821814, 0.026732031846943585, -0.027046157516302263, 0.08199777699908581, -0.12087349672705536, -0.08126908662387518, 0.038807230607203314, -0.030246538224918962, -0.011960537411819723, 0.10751198492260311, -0.0378217311810307, -0.017659450403818312, 0.02631339355116502, -0.0466772045326864, -0.08755306607488639, -0.025976994832460843, -0.0768942514278886, 0.060057593783844905, -0.02723224152833796, 0.00887840040245948, -0.02238074729850324, 0.004980845010554448, -0.0007448369859337841, -0.006576259626017982, 0.0059467901016228425, -0.0018407278317828207, 0.05928022072889102, -0.09271375089765141, 0.02033545214759352, 0.05004127556132221, -0.030380583858326458, 0.009842948325808573, -0.06813124965349765, -0.03561504261009423, -0.008872871429986008, -0.01195207936041764, 0.11380748080023981, 0.05935663618442342, 0.02779370919030165, -0.02684446299421419, -0.01165767759614573, 0.006604969487032946, 0.01594335802633726, -0.008606322960279092, 0.028195506411137834, 0.0673197330216124, -0.013600868321847561, 0.03483396766893106, -0.09786919007812503, 0.03611001531813492, 0.004824772016502232, 0.02492067791534791, -0.041561080503610244, -0.08028459238560563, 0.0030514801465951285, -0.015203326432703269, 0.007022459797159344, -0.04196529838690311, -0.05484198516556347, 0.02193904726850494, 0.004817203162354984, -0.017374214368773146, 0.0677555411865206, -0.0018849528061171145, 0.05576263950298536, -0.014203552502043363, -3.3784187473306e-05, -0.02633211362969639, 0.13765535509772578, -0.00587244877879282, -0.07672593352349771, 0.011076867039196515, -0.040244711429443525, -0.017114681760128196, 0.03038088185943036, -0.016485139257024415, -0.057501069513571326, -0.012317325404330323, 0.06891166493320859, 0.07982488331072804, 0.06353392910198905, -0.040853742161998344, 0.04893167168847179, -0.04844788989116085, 0.05020615465958251, 0.04347196272084575, 0.06656310046623742, 0.018557163751998222, 0.06017940228693999, -0.05533131338244053, 0.03197996525620123, -0.03587955868126766, 0.0032517138926861982, 0.002435632992427314, -0.08401379918148096, 0.03624607441548984, 0.016113016482147347, 0.10494161903254878, -0.034430839712237524, 0.04189154198409776, -0.006291033998310417, -0.0043739536737639455, 0.07946886609683489, 0.0857754958687365, -0.02497109085472433, -0.040685072714277785, -0.01488937963255789, -0.09689703462534345, -0.019864472454431646, 0.011591274414060809, -0.05606456189716239, -0.09484743319337849, -0.02922321755235276, 0.10653424779186399, -0.025665112029208136, 0.06979463537887003, 0.001403316038502239, -0.013326642096066686, 0.0062424993811255654, -0.08138075484009563, 0.01289050902024449, 0.026049549241357755, 0.015980836057222354, 0.0114423101579465, -0.03836986648691393, 0.008936571717003513, -0.09276458248382363, 0.0030887655401473156, 0.055948089915713865, -0.05475412405240383, -0.016880204618579617, 0.04715679148374276, 0.08594931477787049, 0.031325410247594346, 0.02527458862216976, 0.025557402260848752, 0.02007655398404509, -0.03067814239994167, -0.014767390189337093, 0.002532118022223598, 0.05202316326285422, 0.026190394238742937, -0.009013072397432806, -0.03643262313405336, -0.03683061141670176, 0.09368425277684322, 0.010859683497740347, -0.006986802920943737, -0.04480451828533119, -0.05603712880455147, -0.01929972018913455, -0.05902216456291359, 0.03354909994226865, -0.07084865990336625, -0.07669067159881288, 0.0384959500564031, 0.06739735754643303, 0.023179110631509996, -0.03291388121838196, -0.001984095992943481, 0.02420631277136659, -0.0006519293070047336, 0.0769803514451714, 0.04060255983042325, 0.07572787830473642, -0.08714410126527725, -0.007159623781112627, 0.016960196483526802, 0.021748937279827442, -0.0060293896940933865, 0.005667325003772163, 0.07084112120646321, 0.027479073679661438, 0.0616528093662472, 0.054007535169510894, 0.011713031437406254, 0.07660813512721945, 0.058554209569930946, -0.03375406879858, -0.030085225340713274, -0.03689431466512593, 0.006373407891484124, -0.037592662881676966, -0.04535243064135653, -0.017027943274542823, 0.022399418816021515, -0.03713203992865207, 0.00226458492744076, 0.008296762762327128, 0.03984245637352011, -0.019825887019432234, -0.01167507752849299, -0.09869774055450346, 0.023033544511155746, 0.0019778277171789587, 0.027435505990925105, 0.05487281987673407, -0.0034300750074216808, 0.07850848844118757, 0.008614291217668485, -0.008155509497796424, 0.006694412767777773, 0.01967400101154899, -0.03980334942654425, -0.04434719485568965, -0.014919446234603968, -0.05097466667243783, 0.0006457405839777724, -0.027980179304815455, -0.006481230065538542, -0.0272173369891969, 0.022413910214304472, -0.09780933145743077, -0.026197402492963925, 0.03422312840507111, 0.04923958894106675, -0.058636125319961645, 0.10595198505798246, -0.03451694256831316, 0.011797657616415458, -0.08838672753532893, -0.08417358521352813, -0.10307213455627227, -0.006933587977197192, 0.023809301641473397, 0.04154757404066721, 0.05072584650732489, 0.04429856240961297, 0.05582448961922032, -0.005700836828265692, 0.06400109777877681, -0.06692563485293489, 0.02590480703581752, -0.002011480654275664, -0.037902644109870744, 0.02100914435788408, -0.04508460429981134, -0.05656555600100994, 0.0645029657758871, -0.030428186829620955, 0.03757867451121046, -0.058923497140126506, 0.012608271776638785, -0.06308600251679558, 0.006243885055673111, -0.05356481833507012, 0.00892915728713062, -0.030323970338024656, -0.016653827137152227, 0.07401768750097484, 0.11937940799248214, -0.03859530016156886, 0.049745470344625446, -0.01851151997727777, 0.024994715437620885, -0.009971795818825473, 0.030343092720464725, -0.01096640298963745, -0.07013771890721869, 0.1213365416739801, 0.058196540847912474, -0.0022463788707408065, 0.029230773523899918, -0.06152953337931748, 0.04713432975581067, 0.013350797150434019, -0.05190865950702027, 0.042148276841502595, -0.0012951593147598577, -0.07309365631182546, -0.004394614389177063, -0.07503205237688532, -0.026786425706812687, 0.04852672876867975, 0.013020015838180491, -0.04185001837614179, 0.0046800977906406764, -0.0292108939380367, 0.002127084974364194, -0.06744403873899163, -0.11373851977625593, -0.023994775528625552, -0.0041702500613162346, 0.13813541315509842, 0.04342863410270009, -0.006227888395972296, -0.0065299578702890035, 0.10750707455207834, 0.09763709204010265, -0.05079580462229833, 0.009445033668644558, 0.030195621078685175, 0.026341069157615415, -0.013488082771219614, -0.017408961314687492, 0.02945182399661494, -0.042530333480838546, 0.029118444747885122, -0.10849573268902608, -0.005003715562210218, -0.04121012386963203, 0.004541900584609995, -0.03541881536598296, -0.024163384359128907, -0.03565645809998393, -0.032502541757918904, -0.05240582345943649, -0.09470364471185504, -0.02480365059648672, -0.031659741675254295, 0.05895434806739574, 0.008264637526050542, 0.024969747633060025, -0.06848178382015943, -0.05934383545205316, -0.000556032172652482, 0.05143685553027617, 0.09506023636493922, -0.06342872230500199, 0.003629623827028977, 0.0028509788496234732, -0.012700878225076581, -0.04353778402659301, 0.0002650797948625294, 0.0327867375902706, 0.036048436053451496, -0.02180337596861449, -0.08879580870486721, 0.036524605483356475, -0.04843157964147717, 0.08504102146788059, -0.023252911101144014, -0.02649308661202122, -0.026851211723956624, -0.11590121504578514, 0.005188875883979182, -0.042909387666681356, -0.03289715174321955, 0.045338061447042444, -0.0068822450524284925, 0.08604654028499795, 0.06320296214955898, -0.04438336056777641, 0.02884627801042037, 0.03841719476092802, -0.02002606750833657, -0.021632440094559963, 0.05532650175773304, 0.02676622583432656, -0.012029118128398956, 0.10805338114202455, 0.0166374466819675, 0.018012136716771057, 0.010155300184303006, -0.03951016615246102, 0.03336969681614719, -0.003888018891143923, 0.0796795129357733, -0.014714692730399534, -0.019653963708019268, 0.0034839663137952205, -0.045206863827029604, 0.10226761316986178, 0.0745991873808111, 0.02420898972345276, 0.022176232601813985, 0.02127948736556218, 0.018028781681878776, 0.007277509140356233, -0.03399512787079709, 0.03876410415655369, 0.02571381452332349, 0.026862039875685372, -0.01324167236273373, -0.047902854650276126, 0.013944917296676964, 